1,-0.094483,0.090749,0.744999,0.444949,0.536917,0.192157,0.00494,0.579119,0.642788,0.445763,-0.064233,0.024429,0.758714,-0.273834,-0.225984,0.202091,0.626499, 
2,-0.062293,0.089213,0.734986,0.43287,0.61693,0.165768,-0.001793,0.598807,0.607349,0.065802,-0.41124,-0.352503,0.701874,-0.381786,-0.323899,0.081384,0.611169, 
3,0.025331,0.108209,0.724706,0.422514,0.728846,0.139202,0.00684,0.666233,0.572362,-0.068081,-0.528781,-0.473865,0.6817,-0.408184,-0.35162,0.041415,0.607697, 
4,0.131312,0.134914,0.713859,0.41263,0.851417,0.112261,0.019234,0.746865,0.537591,-0.111851,-0.558821,-0.500063,0.675171,-0.408146,-0.360706,0.024423,0.607822, 
5,0.243979,0.165074,0.702372,0.402861,0.978214,0.084909,0.032023,0.830601,0.502974,-0.132625,-0.562238,-0.49907,0.672353,-0.398308,-0.366628,0.013192,0.609053, 
6,0.359842,0.197415,0.690233,0.393112,1.107291,0.057164,0.044307,0.914644,0.468506,-0.149345,-0.556101,-0.489851,0.670458,-0.383484,-0.373796,0.002835,0.610683, 
7,0.477753,0.231525,0.677455,0.383353,1.237962,0.029057,0.055835,0.998205,0.434192,-0.16725,-0.545115,-0.477609,0.668717,-0.365093,-0.383447,-0.008026,0.612508, 
8,0.597232,0.267243,0.664059,0.37357,1.369884,0.000625,0.066532,1.081047,0.400044,-0.187757,-0.530578,-0.463765,0.666919,-0.343598,-0.395921,-0.019785,0.614472, 
9,0.717994,0.30448,0.650069,0.363758,1.502804,-0.028091,0.076372,1.163085,0.366073,-0.211206,-0.512852,-0.448698,0.665006,-0.319197,-0.411293,-0.032559,0.616556, 
10,0.839815,0.343167,0.635511,0.353907,1.636492,-0.057049,0.085342,1.244277,0.33229,-0.237633,-0.492054,-0.432501,0.662961,-0.292025,-0.429557,-0.046386,0.618755, 
11,0.962497,0.383244,0.620413,0.344014,1.770719,-0.086206,0.093431,1.324591,0.298705,-0.266979,-0.468238,-0.415195,0.660784,-0.262202,-0.450674,-0.061276,0.621062, 
12,1.085858,0.424649,0.604804,0.33407,1.905257,-0.115519,0.100634,1.403999,0.265329,-0.299159,-0.441457,-0.396779,0.658473,-0.229851,-0.474586,-0.077233,0.623477, 
13,1.209729,0.467328,0.588714,0.324071,2.039885,-0.144945,0.106945,1.482474,0.232172,-0.33407,-0.411766,-0.377254,0.656029,-0.1951,-0.50122,-0.094255,0.625995, 
14,1.333963,0.511227,0.572173,0.31401,2.17438,-0.174445,0.112363,1.559988,0.199243,-0.371601,-0.379236,-0.356618,0.653455,-0.158081,-0.530494,-0.112335,0.628614, 
15,1.458427,0.556298,0.555211,0.303885,2.308533,-0.203978,0.116885,1.636518,0.166551,-0.411636,-0.343946,-0.334874,0.650752,-0.118934,-0.562311,-0.13146,0.63133, 
16,1.583005,0.602496,0.537859,0.293691,2.442143,-0.233508,0.120512,1.712036,0.134105,-0.45405,-0.305986,-0.312028,0.647922,-0.077803,-0.596564,-0.151617,0.63414, 
17,1.707601,0.64978,0.520145,0.283427,2.575017,-0.263002,0.123247,1.786516,0.101913,-0.498714,-0.265454,-0.288088,0.644968,-0.034835,-0.633141,-0.172787,0.63704, 
18,1.832132,0.698116,0.502099,0.273092,2.70698,-0.292426,0.125095,1.859933,0.069983,-0.545494,-0.222459,-0.263066,0.641893,0.009818,-0.671917,-0.19495,0.640024, 
19,1.956535,0.747475,0.483749,0.262687,2.837862,-0.321753,0.126062,1.93226,0.038323,-0.594249,-0.177115,-0.236974,0.638701,0.056001,-0.712766,-0.21808,0.643088, 
20,2.080757,0.797829,0.465123,0.252213,2.967515,-0.350957,0.126157,2.00347,0.006939,-0.644836,-0.129543,-0.20983,0.635397,0.103558,-0.755553,-0.242151,0.646228, 
21,2.204761,0.849158,0.446245,0.241673,3.095801,-0.380016,0.125393,2.07354,-0.024163,-0.697107,-0.079871,-0.181653,0.631984,0.152331,-0.800141,-0.267132,0.649437, 
22,2.328519,0.901446,0.427142,0.231073,3.222596,-0.408909,0.123782,2.142442,-0.054975,-0.750912,-0.028228,-0.152466,0.628468,0.20216,-0.846386,-0.29299,0.652709, 
23,2.452013,0.95468,0.407837,0.220419,3.347787,-0.43762,0.121341,2.210155,-0.085492,-0.806095,0.025251,-0.122295,0.624857,0.252884,-0.894147,-0.319687,0.656038, 
24,2.575233,1.008849,0.388354,0.209716,3.471278,-0.466134,0.118089,2.276649,-0.11571,-0.8625,0.080427,-0.091168,0.621155,0.304346,-0.94328,-0.347185,0.659417, 
25,2.698169,1.063946,0.368716,0.198974,3.592981,-0.49444,0.114047,2.341902,-0.145623,-0.919968,0.137162,-0.059119,0.61737,0.356387,-0.993638,-0.375442,0.662838, 
26,2.820825,1.119965,0.348942,0.1882,3.71282,-0.522528,0.109238,2.405891,-0.175226,-0.978341,0.195314,-0.026183,0.61351,0.408852,-1.045079,-0.404412,0.666294, 
27,2.943197,1.176902,0.329055,0.177405,3.83073,-0.550389,0.10369,2.468593,-0.204517,-1.037455,0.254741,0.0076,0.609582,0.461587,-1.097459,-0.434048,0.669778, 
28,3.065288,1.23475,0.309074,0.166599,3.94666,-0.578019,0.09743,2.529988,-0.233491,-1.097152,0.315301,0.042186,0.605596,0.514445,-1.150639,-0.464298,0.673281, 
29,3.187097,1.293505,0.289019,0.155791,4.060559,-0.605412,0.090489,2.590054,-0.262145,-1.157273,0.376852,0.077528,0.60156,0.56728,-1.20448,-0.495111,0.676795, 
30,3.308622,1.35316,0.268908,0.144993,4.172391,-0.632567,0.0829,2.648773,-0.290477,-1.217659,0.439253,0.113576,0.597483,0.619955,-1.258849,-0.526433,0.680314, 
31,3.429856,1.413708,0.248759,0.134215,4.282125,-0.65948,0.074698,2.70613,-0.318484,-1.278157,0.502365,0.150273,0.593373,0.672335,-1.313616,-0.558205,0.683829, 
32,3.550791,1.475137,0.22859,0.123469,4.389738,-0.686152,0.065919,2.762108,-0.346165,-1.338617,0.566052,0.187563,0.589242,0.724295,-1.368658,-0.590372,0.687332, 
33,3.671416,1.537435,0.208419,0.112764,4.495215,-0.712584,0.056602,2.816696,-0.373519,-1.398892,0.630179,0.225385,0.585098,0.775717,-1.423853,-0.622873,0.690816, 
34,3.79171,1.600583,0.188261,0.102111,4.598546,-0.738775,0.046785,2.869884,-0.400544,-1.458842,0.694616,0.263676,0.58095,0.826491,-1.47909,-0.655649,0.694274, 
35,3.911649,1.664561,0.168134,0.091519,4.699725,-0.764728,0.036509,2.921664,-0.42724,-1.518335,0.759237,0.302368,0.576807,0.876514,-1.534261,-0.68864,0.697698, 
36,4.031207,1.729343,0.148053,0.080999,4.798754,-0.790444,0.025815,2.972033,-0.453607,-1.577245,0.823921,0.341397,0.572678,0.925692,-1.589263,-0.721788,0.701083, 
37,4.150346,1.794899,0.128034,0.070559,4.895639,-0.815928,0.014743,3.020991,-0.479646,-1.635453,0.88855,0.380692,0.568572,0.973942,-1.644004,-0.755033,0.704422, 
38,4.26903,1.861195,0.108093,0.060207,4.99039,-0.841181,0.003336,3.068536,-0.505356,-1.69285,0.953014,0.420186,0.564498,1.021187,-1.698397,-0.788319,0.707709, 
39,4.387216,1.928194,0.088243,0.04995,5.083021,-0.866206,-0.008367,3.114675,-0.53074,-1.749336,1.017209,0.459809,0.560462,1.067361,-1.752361,-0.821589,0.710939, 
40,4.504858,1.995851,0.068499,0.039796,5.173546,-0.891009,-0.020324,3.159412,-0.555798,-1.804817,1.081035,0.499493,0.556472,1.112406,-1.805824,-0.854789,0.714107, 
41,4.621906,2.064122,0.048875,0.029751,5.261995,-0.915591,-0.032495,3.202761,-0.580532,-1.859212,1.144402,0.53917,0.552535,1.15627,-1.85872,-0.887868,0.717208, 
42,4.738308,2.132955,0.029384,0.019821,5.348386,-0.939957,-0.044843,3.24473,-0.604945,-1.912449,1.207224,0.578776,0.548659,1.198914,-1.91099,-0.920776,0.72024, 
43,4.854006,2.202296,0.01004,0.010009,5.432753,-0.96411,-0.05733,3.285338,-0.629039,-1.964462,1.269424,0.618247,0.544848,1.240303,-1.962581,-0.953467,0.723197, 
44,4.968945,2.272089,-0.009147,0.00032,5.515116,-0.988054,-0.06992,3.324604,-0.652817,-2.015198,1.330931,0.657522,0.541109,1.280412,-2.013448,-0.985897,0.726077, 
45,5.083074,2.342275,-0.028165,-0.009242,5.59552,-1.011794,-0.082579,3.362543,-0.67628,-2.064609,1.391682,0.696543,0.537445,1.31922,-2.063552,-1.018027,0.728878, 
46,5.196336,2.412793,-0.047002,-0.018675,5.673992,-1.035331,-0.095275,3.399184,-0.699434,-2.112659,1.45162,0.735258,0.533862,1.356715,-2.112858,-1.049818,0.731597, 
47,5.308679,2.483582,-0.065649,-0.027977,5.75057,-1.05867,-0.107977,3.434549,-0.722282,-2.159317,1.510695,0.773614,0.530364,1.392889,-2.161337,-1.081236,0.734231, 
48,5.420044,2.55458,-0.084096,-0.037145,5.825295,-1.081817,-0.120658,3.468665,-0.744826,-2.204559,1.568864,0.811565,0.526953,1.42774,-2.208967,-1.112251,0.736781, 
49,5.530383,2.625722,-0.102335,-0.046178,5.898203,-1.104771,-0.13329,3.50156,-0.767072,-2.248372,1.62609,0.849068,0.523632,1.461271,-2.25573,-1.142835,0.739243, 
50,5.63965,2.696947,-0.120358,-0.055077,5.969333,-1.127538,-0.145849,3.533264,-0.789022,-2.290744,1.682343,0.886085,0.520405,1.493489,-2.301612,-1.172964,0.741619, 
51,5.747796,2.768193,-0.138158,-0.06384,6.038726,-1.150122,-0.158313,3.563805,-0.810682,-2.331673,1.737595,0.92258,0.517273,1.524404,-2.346603,-1.202616,0.743907, 
52,5.854778,2.8394,-0.155729,-0.072469,6.106422,-1.172525,-0.170662,3.593218,-0.832056,-2.371159,1.79183,0.958522,0.514237,1.554031,-2.390697,-1.231773,0.746106, 
53,5.960561,2.910507,-0.173065,-0.080963,6.172471,-1.19475,-0.182878,3.621534,-0.853147,-2.409209,1.845029,0.993883,0.511299,1.582387,-2.433889,-1.260419,0.748218, 
54,6.065111,2.98146,-0.190162,-0.089323,6.236905,-1.216799,-0.194943,3.648786,-0.873961,-2.445834,1.897184,1.028641,0.50846,1.609491,-2.476181,-1.28854,0.750241, 
55,6.168394,3.052203,-0.207015,-0.097551,6.299766,-1.238678,-0.206845,3.675005,-0.894502,-2.481046,1.948287,1.062775,0.50572,1.635365,-2.517574,-1.316126,0.752177, 
56,6.270382,3.122684,-0.223621,-0.105648,6.3611,-1.260387,-0.218569,3.700229,-0.914775,-2.514865,1.998337,1.096268,0.503079,1.660031,-2.558076,-1.343171,0.754026, 
57,6.371057,3.192855,-0.239978,-0.113616,6.420949,-1.281929,-0.230105,3.724486,-0.934785,-2.547309,2.047333,1.129109,0.500537,1.683516,-2.59769,-1.369665,0.755789, 
58,6.470391,3.262669,-0.256085,-0.121456,6.479347,-1.303307,-0.241443,3.747809,-0.954536,-2.578399,2.095279,1.161286,0.498093,1.705844,-2.636427,-1.395607,0.757467, 
59,6.568377,3.332082,-0.271939,-0.12917,6.53634,-1.324525,-0.252576,3.770236,-0.974033,-2.608162,2.142181,1.192791,0.495748,1.727042,-2.674297,-1.420992,0.759061, 
60,6.664993,3.401053,-0.28754,-0.13676,6.591964,-1.345584,-0.263496,3.791796,-0.993282,-2.636623,2.188051,1.22362,0.4935,1.747136,-2.711309,-1.445822,0.760572, 
61,6.76024,3.469546,-0.302889,-0.144229,6.646259,-1.366486,-0.274198,3.812518,-1.012286,-2.663811,2.232897,1.253773,0.491348,1.766156,-2.747478,-1.470096,0.762002, 
62,6.854107,3.537528,-0.317985,-0.151579,6.699256,-1.387234,-0.284677,3.832438,-1.031051,-2.689752,2.27673,1.283244,0.489292,1.784129,-2.78282,-1.493818,0.76335, 
63,6.946593,3.604968,-0.33283,-0.158812,6.751002,-1.40783,-0.29493,3.851581,-1.049582,-2.714476,2.319566,1.31204,0.48733,1.801083,-2.817342,-1.51699,0.764621, 
64,7.037692,3.671836,-0.347425,-0.165931,6.801523,-1.428276,-0.304956,3.869984,-1.067882,-2.738013,2.361421,1.340162,0.48546,1.817047,-2.851064,-1.539618,0.765814, 
65,7.127416,3.738109,-0.361772,-0.172938,6.850863,-1.448572,-0.314753,3.887668,-1.085958,-2.760395,2.40231,1.367615,0.48368,1.832049,-2.884002,-1.561707,0.766932, 
66,7.21576,3.803764,-0.375874,-0.179835,6.899054,-1.468722,-0.324319,3.904666,-1.103814,-2.781649,2.442251,1.394405,0.481991,1.846118,-2.916167,-1.583265,0.767975, 
67,7.302745,3.868779,-0.389732,-0.186624,6.946128,-1.488727,-0.333655,3.921003,-1.121453,-2.801809,2.481261,1.420539,0.480388,1.859281,-2.947579,-1.604296,0.768946, 
68,7.388377,3.93314,-0.40335,-0.193309,6.992122,-1.508589,-0.342762,3.936708,-1.138884,-2.820904,2.51936,1.446028,0.478871,1.871564,-2.97825,-1.62481,0.769847, 
69,7.472661,3.996831,-0.41673,-0.199892,7.037063,-1.52831,-0.351641,3.951804,-1.156108,-2.838965,2.556562,1.470879,0.477438,1.882997,-3.008199,-1.644815,0.770678, 
70,7.555611,4.059843,-0.429876,-0.206374,7.080976,-1.547891,-0.360293,3.966317,-1.173129,-2.856024,2.592893,1.495103,0.476087,1.893603,-3.037442,-1.66432,0.771443, 
71,7.637245,4.122161,-0.442792,-0.212759,7.123898,-1.567335,-0.368722,3.98027,-1.189951,-2.87211,2.628368,1.518713,0.474817,1.903411,-3.065994,-1.683336,0.772141, 
72,7.717576,4.183778,-0.45548,-0.219048,7.165857,-1.586644,-0.376929,3.993688,-1.206581,-2.887251,2.663009,1.541718,0.473624,1.912446,-3.093872,-1.70187,0.772776, 
73,7.796623,4.244691,-0.467946,-0.225244,7.206878,-1.605817,-0.384917,4.00659,-1.223021,-2.90148,2.696834,1.564131,0.472507,1.920734,-3.12109,-1.719934,0.773349, 
74,7.874404,4.304892,-0.480192,-0.231349,7.246994,-1.624855,-0.39269,4.019001,-1.239277,-2.914825,2.729861,1.585966,0.471464,1.928298,-3.147663,-1.737538,0.773861, 
75,7.950936,4.364387,-0.492223,-0.237366,7.286219,-1.643762,-0.40025,4.030938,-1.255353,-2.927312,2.762112,1.607235,0.470494,1.935163,-3.173608,-1.75469,0.774314, 
76,8.026237,4.42316,-0.504043,-0.243295,7.324586,-1.662538,-0.407602,4.042424,-1.27125,-2.93897,2.793602,1.62795,0.469593,1.941352,-3.198942,-1.771402,0.774711, 
77,8.100331,4.481217,-0.515656,-0.24914,7.362123,-1.681184,-0.414749,4.053471,-1.286975,-2.949828,2.824353,1.648124,0.468761,1.946889,-3.223676,-1.787684,0.775052, 
78,8.173244,4.538563,-0.527067,-0.254902,7.398848,-1.699704,-0.421695,4.064103,-1.302531,-2.959909,2.854385,1.667772,0.467995,1.951795,-3.247828,-1.803548,0.775339, 
79,8.244987,4.595198,-0.538278,-0.260583,7.434784,-1.718098,-0.428444,4.074333,-1.317923,-2.969242,2.883712,1.686905,0.467293,1.956093,-3.271412,-1.819003,0.775574, 
80,8.315581,4.651122,-0.549295,-0.266186,7.469951,-1.736366,-0.435,4.08418,-1.333152,-2.977851,2.912355,1.705537,0.466654,1.959803,-3.294441,-1.834059,0.77576, 
81,8.385046,4.706344,-0.560121,-0.271711,7.504373,-1.754508,-0.441367,4.093662,-1.348225,-2.985762,2.940331,1.723684,0.466075,1.962947,-3.316928,-1.848728,0.775896, 
82,8.453401,4.760871,-0.570762,-0.277161,7.538066,-1.772528,-0.447549,4.102791,-1.363142,-2.992999,2.967654,1.741355,0.465554,1.965545,-3.338888,-1.86302,0.775985, 
83,8.520681,4.8147,-0.58122,-0.282538,7.571056,-1.790426,-0.453551,4.111581,-1.377909,-2.999584,2.994347,1.758565,0.46509,1.967615,-3.360334,-1.876945,0.776028, 
84,8.586902,4.867843,-0.5915,-0.287842,7.603357,-1.808202,-0.459376,4.120051,-1.392528,-3.00554,3.020422,1.775327,0.464681,1.969179,-3.381281,-1.890512,0.776027, 
85,8.652082,4.920309,-0.601606,-0.293076,7.634996,-1.82586,-0.46503,4.128206,-1.407003,-3.010892,3.045896,1.791652,0.464325,1.970253,-3.40174,-1.903732,0.775984, 
86,8.716245,4.972102,-0.611542,-0.298241,7.665987,-1.843399,-0.470515,4.136066,-1.421337,-3.015661,3.070786,1.807555,0.464021,1.970856,-3.421723,-1.916614,0.775899, 
87,8.779414,5.023224,-0.621312,-0.303339,7.69634,-1.860821,-0.475836,4.143636,-1.435533,-3.019866,3.095107,1.823047,0.463766,1.971006,-3.441241,-1.929169,0.775774, 
88,8.841615,5.073697,-0.63092,-0.30837,7.726081,-1.878127,-0.480997,4.150929,-1.449594,-3.02353,3.118874,1.83814,0.463559,1.970719,-3.46031,-1.941405,0.775611, 
89,8.902856,5.123521,-0.640369,-0.313337,7.755222,-1.895317,-0.486002,4.157957,-1.463523,-3.02667,3.142103,1.852846,0.463398,1.970013,-3.478939,-1.953332,0.775411, 
90,8.963159,5.172702,-0.649663,-0.31824,7.783782,-1.912393,-0.490855,4.164732,-1.477322,-3.029307,3.164807,1.867177,0.463282,1.968903,-3.49714,-1.964958,0.775175, 
91,9.022546,5.221256,-0.658806,-0.323081,7.811769,-1.929357,-0.49556,4.171263,-1.490995,-3.031461,3.187,1.881143,0.46321,1.967405,-3.514923,-1.976293,0.774905, 
92,9.08104,5.269184,-0.667802,-0.327862,7.839205,-1.946208,-0.500121,4.177563,-1.504544,-3.033148,3.208695,1.894756,0.463179,1.965533,-3.532302,-1.987346,0.774602, 
93,9.138658,5.316498,-0.676653,-0.332583,7.866099,-1.962949,-0.504541,4.183638,-1.517972,-3.034386,3.229909,1.908027,0.463188,1.963305,-3.549286,-1.998125,0.774266, 
94,9.195416,5.363214,-0.685364,-0.337245,7.892465,-1.97958,-0.508824,4.189491,-1.531282,-3.035193,3.250652,1.920966,0.463235,1.960734,-3.565886,-2.008638,0.773901, 
95,9.251344,5.409333,-0.693937,-0.341849,7.918318,-1.996102,-0.512974,4.19514,-1.544474,-3.035588,3.270938,1.933583,0.46332,1.957831,-3.582112,-2.018893,0.773505, 
96,9.30644,5.454872,-0.702376,-0.346397,7.94367,-2.012514,-0.516995,4.200585,-1.557552,-3.035584,3.290779,1.94589,0.46344,1.954612,-3.59797,-2.028899,0.773081, 
97,9.360735,5.499829,-0.710684,-0.35089,7.968537,-2.028821,-0.520889,4.205839,-1.57052,-3.035196,3.310188,1.957895,0.463596,1.95109,-3.613476,-2.038662,0.772631, 
98,9.414255,5.544225,-0.718864,-0.355328,7.992926,-2.045025,-0.52466,4.210904,-1.58338,-3.034439,3.329177,1.969609,0.463784,1.947277,-3.628637,-2.048193,0.772153, 
99,9.467004,5.588068,-0.726919,-0.359712,8.016849,-2.061121,-0.528312,4.21579,-1.596133,-3.033329,3.347758,1.981039,0.464004,1.943185,-3.643465,-2.057496,0.771652, 
100,9.519005,5.63136,-0.734853,-0.364044,8.040313,-2.077114,-0.531847,4.220506,-1.608782,-3.031882,3.365941,1.992197,0.464255,1.938826,-3.657968,-2.06658,0.771126, 
101,9.57027,5.674118,-0.742667,-0.368324,8.063339,-2.093003,-0.535269,4.225053,-1.621328,-3.030108,3.383739,2.003089,0.464535,1.934214,-3.672153,-2.075452,0.770577, 
102,9.620813,5.716346,-0.750365,-0.372553,8.085944,-2.10879,-0.538582,4.229442,-1.633774,-3.028025,3.40116,2.013725,0.464844,1.929359,-3.686029,-2.084119,0.770006, 
103,9.67064,5.758054,-0.757949,-0.376731,8.108129,-2.124472,-0.541788,4.233676,-1.64612,-3.025646,3.418215,2.024113,0.465179,1.924273,-3.699605,-2.092586,0.769415, 
104,9.719792,5.799252,-0.765423,-0.38086,8.129894,-2.140061,-0.544889,4.237757,-1.658371,-3.022978,3.434916,2.034261,0.465541,1.918965,-3.712892,-2.100862,0.768804, 
105,9.76827,5.839952,-0.772788,-0.384941,8.151254,-2.155549,-0.54789,4.241698,-1.670525,-3.020036,3.451276,2.044179,0.465927,1.913444,-3.725895,-2.108951,0.768173, 
106,9.816085,5.880153,-0.780047,-0.388973,8.17223,-2.170938,-0.550792,4.245503,-1.682587,-3.016832,3.467299,2.053872,0.466337,1.907722,-3.738626,-2.116861,0.767524, 
107,9.86326,5.919877,-0.787203,-0.392958,8.192822,-2.186234,-0.553598,4.249173,-1.694557,-3.013377,3.482996,2.063348,0.46677,1.901809,-3.751089,-2.124595,0.766858, 
108,9.909804,5.959124,-0.794258,-0.396897,8.21304,-2.201429,-0.556311,4.252709,-1.706437,-3.009683,3.498379,2.072615,0.467224,1.895714,-3.763295,-2.132163,0.766176, 
109,9.955747,5.997902,-0.801215,-0.400789,8.232891,-2.216534,-0.558934,4.256129,-1.718229,-3.00576,3.513455,2.081678,0.4677,1.889443,-3.775251,-2.139567,0.765477, 
110,10.001077,6.036225,-0.808075,-0.404636,8.252383,-2.23154,-0.561468,4.259418,-1.729937,-3.001618,3.528236,2.090546,0.468195,1.883009,-3.786964,-2.146815,0.764764, 
111,10.045802,6.074099,-0.81484,-0.408438,8.271527,-2.246456,-0.563917,4.262597,-1.741558,-2.997268,3.542727,2.099225,0.468709,1.87642,-3.798442,-2.153913,0.764037, 
112,10.089962,6.11153,-0.821514,-0.412196,8.290324,-2.261279,-0.566283,4.265662,-1.753097,-2.992719,3.556938,2.107722,0.469242,1.869682,-3.809692,-2.160863,0.763297, 
113,10.133552,6.148528,-0.828098,-0.415911,8.30879,-2.276013,-0.568568,4.268616,-1.764553,-2.98798,3.570879,2.116042,0.469792,1.862803,-3.820721,-2.167672,0.762544, 
114,10.176592,6.185098,-0.834593,-0.419582,8.326941,-2.290652,-0.570774,4.27147,-1.775928,-2.983064,3.584557,2.12419,0.470358,1.855795,-3.831535,-2.174345,0.761779, 
115,10.219085,6.221251,-0.841003,-0.423211,8.344767,-2.305204,-0.572903,4.274221,-1.787224,-2.977975,3.597979,2.132175,0.47094,1.848663,-3.842143,-2.180887,0.761003, 
116,10.261042,6.256989,-0.847328,-0.426798,8.362281,-2.319666,-0.574959,4.276873,-1.798443,-2.972724,3.611155,2.140001,0.471536,1.841414,-3.852551,-2.187302,0.760217, 
117,10.302482,6.292326,-0.853571,-0.430343,8.37949,-2.334043,-0.576942,4.279426,-1.809584,-2.96732,3.62409,2.147676,0.472146,1.834055,-3.862765,-2.193594,0.759421, 
118,10.343404,6.327271,-0.859733,-0.433847,8.396403,-2.348333,-0.578855,4.281896,-1.820651,-2.961768,3.636793,2.1552,0.47277,1.826593,-3.87279,-2.19977,0.758615, 
119,10.383839,6.361825,-0.865817,-0.437311,8.413033,-2.362535,-0.580699,4.284266,-1.831642,-2.956078,3.649272,2.162581,0.473407,1.819035,-3.882636,-2.205831,0.757801, 
120,10.423787,6.395995,-0.871823,-0.440735,8.429371,-2.376657,-0.582477,4.286551,-1.84256,-2.950256,3.661534,2.169826,0.474055,1.811387,-3.892305,-2.211783,0.756979, 
121,10.463255,6.429792,-0.877755,-0.444119,8.445421,-2.390695,-0.58419,4.288755,-1.853407,-2.944308,3.673586,2.176939,0.474715,1.803652,-3.901809,-2.217632,0.756149, 
122,10.502253,6.463221,-0.883612,-0.447464,8.461216,-2.404651,-0.585841,4.290869,-1.864182,-2.938242,3.685436,2.183922,0.475385,1.795841,-3.911149,-2.22338,0.755313, 
123,10.540783,6.496284,-0.889397,-0.450771,8.476743,-2.418522,-0.58743,4.292904,-1.874889,-2.932068,3.697086,2.19078,0.476066,1.787958,-3.920332,-2.229029,0.75447, 
124,10.578857,6.528987,-0.895111,-0.454039,8.49201,-2.432313,-0.588961,4.294869,-1.885524,-2.925791,3.708549,2.19752,0.476755,1.780009,-3.929364,-2.234582,0.753621, 
125,10.616491,6.561346,-0.900756,-0.457269,8.507016,-2.446025,-0.590433,4.296761,-1.896092,-2.919415,3.719828,2.204145,0.477454,1.771999,-3.93825,-2.240047,0.752767, 
126,10.653701,6.593359,-0.906333,-0.460462,8.521784,-2.459653,-0.59185,4.298576,-1.906592,-2.912949,3.730929,2.21066,0.47816,1.763935,-3.946997,-2.245424,0.751908, 
127,10.690479,6.625036,-0.911844,-0.463619,8.53631,-2.473203,-0.593212,4.300325,-1.917027,-2.9064,3.741858,2.217068,0.478874,1.755821,-3.955606,-2.250721,0.751045, 
128,10.726849,6.656381,-0.91729,-0.466738,8.550593,-2.48668,-0.594522,4.302006,-1.927396,-2.899771,3.752623,2.223373,0.479596,1.747662,-3.964088,-2.255936,0.750178, 
129,10.762796,6.687397,-0.922672,-0.46982,8.564639,-2.500079,-0.59578,4.303623,-1.9377,-2.893068,3.763229,2.229581,0.480323,1.73946,-3.972447,-2.261076,0.749307, 
130,10.798359,6.718092,-0.927991,-0.472867,8.578468,-2.513407,-0.596989,4.305179,-1.947943,-2.886293,3.773682,2.235694,0.481058,1.731221,-3.980687,-2.266142,0.748433, 
131,10.833514,6.748474,-0.93325,-0.475879,8.592068,-2.526658,-0.598148,4.306668,-1.95812,-2.879456,3.783988,2.241715,0.481797,1.72295,-3.988811,-2.271138,0.747556, 
132,10.868287,6.778549,-0.938448,-0.478855,8.605442,-2.539836,-0.599261,4.308093,-1.968237,-2.872558,3.794152,2.247648,0.482543,1.714648,-3.996828,-2.276067,0.746677, 
133,10.902686,6.80832,-0.943588,-0.481797,8.618607,-2.552941,-0.600328,4.309468,-1.978292,-2.865605,3.804177,2.253497,0.483293,1.706323,-4.004741,-2.280931,0.745796, 
134,10.936706,6.837788,-0.948671,-0.484704,8.631563,-2.565976,-0.601349,4.310779,-1.988287,-2.858603,3.814073,2.259268,0.484047,1.697976,-4.012554,-2.285733,0.744913, 
135,10.970372,6.866963,-0.953697,-0.487577,8.644315,-2.578938,-0.602328,4.312045,-1.998222,-2.851556,3.823839,2.264959,0.484805,1.689614,-4.02027,-2.290479,0.74403, 
136,11.003675,6.895855,-0.958667,-0.490416,8.656873,-2.59183,-0.603264,4.313254,-2.008096,-2.844468,3.833486,2.270576,0.485567,1.681239,-4.027895,-2.295167,0.743145, 
137,11.036624,6.924458,-0.963584,-0.493222,8.669223,-2.604655,-0.60416,4.314406,-2.01791,-2.837342,3.843018,2.276119,0.486332,1.672853,-4.035435,-2.299802,0.74226, 
138,11.069227,6.952779,-0.968446,-0.495995,8.681392,-2.617409,-0.605017,4.315509,-2.027667,-2.830184,3.852437,2.281595,0.4871,1.664462,-4.042895,-2.304385,0.741374, 
139,11.101494,6.98083,-0.973257,-0.498736,8.69337,-2.630095,-0.605834,4.316566,-2.037369,-2.822995,3.861748,2.287004,0.48787,1.656068,-4.050273,-2.308919,0.740489, 
140,11.133429,7.008608,-0.978016,-0.501444,8.705171,-2.642717,-0.606614,4.317572,-2.047011,-2.815781,3.870957,2.292349,0.488643,1.647674,-4.05758,-2.313405,0.739604, 
141,11.16503,7.036124,-0.982726,-0.50412,8.716784,-2.655274,-0.607358,4.318532,-2.0566,-2.808544,3.880069,2.297635,0.489417,1.639281,-4.064819,-2.317849,0.73872, 
142,11.196311,7.063376,-0.987386,-0.506764,8.728221,-2.667766,-0.608068,4.319447,-2.066132,-2.80129,3.889089,2.302862,0.490193,1.630895,-4.071989,-2.32225,0.737837, 
143,11.227276,7.090369,-0.991998,-0.509377,8.739492,-2.680195,-0.608742,4.320326,-2.07561,-2.794016,3.898018,2.308034,0.49097,1.622516,-4.079099,-2.32661,0.736954, 
144,11.25794,7.117108,-0.996562,-0.511959,8.750591,-2.692559,-0.609383,4.321156,-2.085029,-2.786732,3.906861,2.313153,0.491748,1.614147,-4.086148,-2.330932,0.736073, 
145,11.288296,7.143601,-1.001078,-0.51451,8.761523,-2.704862,-0.609992,4.321943,-2.094399,-2.779436,3.915625,2.318221,0.492526,1.605791,-4.093143,-2.335219,0.735193, 
146,11.318354,7.16985,-1.005551,-0.517032,8.772291,-2.717104,-0.61057,4.322693,-2.103711,-2.772134,3.924312,2.323241,0.493305,1.597449,-4.10009,-2.339473,0.734315, 
147,11.348107,7.195857,-1.009978,-0.519523,8.782895,-2.729286,-0.611118,4.323405,-2.112975,-2.764825,3.932925,2.328217,0.494084,1.589124,-4.106987,-2.343694,0.733438, 
148,11.377574,7.221623,-1.014362,-0.521984,8.793359,-2.741409,-0.611636,4.324072,-2.122182,-2.757515,3.941468,2.333147,0.494863,1.58082,-4.113838,-2.347884,0.732564, 
149,11.406762,7.247163,-1.018701,-0.524416,8.803669,-2.753472,-0.612125,4.324706,-2.13134,-2.750206,3.949945,2.338036,0.495642,1.572537,-4.120649,-2.352046,0.731692, 
150,11.435677,7.272474,-1.022998,-0.526819,8.813828,-2.76548,-0.612586,4.325304,-2.140442,-2.742899,3.958361,2.342885,0.49642,1.564277,-4.127423,-2.356183,0.730823, 
151,11.464315,7.297554,-1.027253,-0.529192,8.823845,-2.777427,-0.61302,4.325869,-2.149493,-2.735597,3.966717,2.347696,0.497197,1.556043,-4.13416,-2.360293,0.729957, 
152,11.492685,7.322412,-1.031466,-0.531537,8.833709,-2.789322,-0.613428,4.326401,-2.158493,-2.728302,3.975018,2.35247,0.497974,1.547835,-4.140866,-2.36438,0.729093, 
153,11.520795,7.347045,-1.03564,-0.533854,8.843433,-2.80116,-0.61381,4.326901,-2.167446,-2.721016,3.983266,2.357211,0.498749,1.539654,-4.147547,-2.368447,0.728232, 
154,11.54864,7.371471,-1.039773,-0.536143,8.853034,-2.812942,-0.614168,4.327361,-2.176345,-2.713742,3.991467,2.361919,0.499523,1.531505,-4.154197,-2.37249,0.727375, 
155,11.576229,7.39568,-1.043868,-0.538405,8.8625,-2.824671,-0.614501,4.327796,-2.185195,-2.706482,3.999619,2.366597,0.500296,1.523387,-4.160823,-2.376516,0.72652, 
156,11.603564,7.419681,-1.047923,-0.540639,8.871831,-2.836347,-0.614811,4.328201,-2.193997,-2.699236,4.00773,2.371245,0.501066,1.515301,-4.167433,-2.380526,0.725669, 
157,11.630639,7.443477,-1.051941,-0.542846,8.881041,-2.847971,-0.615098,4.328573,-2.202749,-2.692006,4.015801,2.375866,0.501835,1.50725,-4.17402,-2.384518,0.724822, 
158,11.657483,7.467071,-1.055923,-0.545026,8.890125,-2.859545,-0.615364,4.328918,-2.211451,-2.684794,4.023838,2.380462,0.502602,1.499233,-4.180594,-2.388496,0.723979, 
159,11.684093,7.490463,-1.059869,-0.547181,8.899088,-2.871069,-0.615608,4.329234,-2.220102,-2.677603,4.031843,2.385033,0.503367,1.491254,-4.187155,-2.39246,0.723139, 
160,11.710457,7.513659,-1.063779,-0.549308,8.907915,-2.882543,-0.615833,4.329521,-2.228708,-2.67043,4.039812,2.389582,0.50413,1.483311,-4.193703,-2.396413,0.722303, 
161,11.736592,7.536661,-1.067654,-0.551409,8.916631,-2.893965,-0.616037,4.329784,-2.237266,-2.663279,4.047753,2.394109,0.50489,1.475405,-4.200241,-2.400355,0.72147, 
162,11.762502,7.559474,-1.071494,-0.553485,8.925232,-2.905338,-0.616222,4.330013,-2.245776,-2.656152,4.055664,2.398616,0.505648,1.467539,-4.206778,-2.404286,0.720642, 
163,11.788174,7.582099,-1.0753,-0.555536,8.933717,-2.91667,-0.616388,4.330222,-2.254238,-2.649048,4.063553,2.403103,0.506403,1.459711,-4.21331,-2.408209,0.719818, 
164,11.813633,7.604531,-1.079073,-0.557561,8.942091,-2.927956,-0.616536,4.330414,-2.262651,-2.641968,4.071422,2.407574,0.507156,1.451924,-4.21984,-2.412125,0.718998, 
165,11.838879,7.626783,-1.082812,-0.559562,8.950354,-2.939193,-0.616666,4.330575,-2.271022,-2.634914,4.079275,2.412029,0.507906,1.444177,-4.22637,-2.416034,0.718182, 
166,11.863909,7.648858,-1.086519,-0.561538,8.958506,-2.950384,-0.61678,4.330716,-2.279344,-2.627888,4.08711,2.41647,0.508653,1.436473,-4.232902,-2.41994,0.71737, 
167,11.888721,7.670752,-1.090195,-0.56349,8.966554,-2.961532,-0.616877,4.330832,-2.287619,-2.620892,4.09493,2.420898,0.509398,1.428811,-4.239441,-2.42384,0.716563, 
168,11.913333,7.692477,-1.093839,-0.565417,8.974499,-2.972639,-0.616957,4.330929,-2.295848,-2.613923,4.102738,2.425311,0.510139,1.421193,-4.245985,-2.427736,0.715759, 
169,11.937729,7.714026,-1.097451,-0.567321,8.982352,-2.983703,-0.617022,4.331003,-2.304031,-2.606985,4.110536,2.429713,0.510877,1.413617,-4.252537,-2.431631,0.71496, 
170,11.961926,7.735404,-1.101035,-0.569202,8.990114,-2.994724,-0.617073,4.331055,-2.312169,-2.600078,4.118323,2.434106,0.511613,1.406086,-4.259098,-2.435524,0.714166, 
171,11.985916,7.756617,-1.104588,-0.571059,8.99778,-3.005705,-0.617108,4.331085,-2.320266,-2.593201,4.126106,2.438489,0.512344,1.3986,-4.265672,-2.439414,0.713375, 
172,12.009707,7.777666,-1.108111,-0.572894,9.00535,-3.016645,-0.61713,4.331098,-2.328315,-2.586357,4.133885,2.442863,0.513073,1.391158,-4.272255,-2.443306,0.71259, 
173,12.033313,7.798547,-1.111605,-0.574705,9.012834,-3.027545,-0.617138,4.3311,-2.336322,-2.579547,4.14166,2.44723,0.513798,1.383761,-4.278857,-2.447199,0.711809, 
174,12.05672,7.819271,-1.115072,-0.576494,9.02022,-3.038406,-0.617133,4.331072,-2.344282,-2.57277,4.149436,2.451591,0.51452,1.37641,-4.285473,-2.451092,0.711033, 
175,12.079945,7.839836,-1.118507,-0.578261,9.027519,-3.049229,-0.617116,4.331018,-2.352197,-2.566026,4.157211,2.455948,0.515239,1.369104,-4.292105,-2.454988,0.710261, 
176,12.102987,7.860241,-1.121916,-0.580005,9.034733,-3.060014,-0.617086,4.330945,-2.360072,-2.559314,4.164989,2.460297,0.515954,1.361844,-4.298758,-2.458888,0.709493, 
177,12.125846,7.880488,-1.125297,-0.581728,9.041862,-3.070762,-0.617044,4.330876,-2.367901,-2.552637,4.172771,2.464645,0.516665,1.354629,-4.305431,-2.462791,0.70873, 
178,12.148531,7.900583,-1.128653,-0.583429,9.048903,-3.081474,-0.61699,4.330786,-2.375684,-2.545998,4.180561,2.46899,0.517373,1.347461,-4.312126,-2.466699,0.707972, 
179,12.171025,7.920527,-1.131981,-0.585109,9.055865,-3.092151,-0.616925,4.330675,-2.383423,-2.539392,4.188356,2.473331,0.518077,1.34034,-4.318848,-2.470611,0.707219, 
180,12.19335,7.940331,-1.135284,-0.586768,9.062738,-3.102793,-0.61685,4.330542,-2.39112,-2.532822,4.196162,2.477672,0.518778,1.333265,-4.325592,-2.474528,0.70647, 
181,12.215496,7.959988,-1.138561,-0.588406,9.069545,-3.113399,-0.616764,4.330401,-2.398774,-2.526286,4.203979,2.482013,0.519476,1.326235,-4.332361,-2.478452,0.705725, 
182,12.237478,7.979496,-1.141813,-0.590024,9.076276,-3.12397,-0.616668,4.33025,-2.406389,-2.51979,4.211804,2.486354,0.520169,1.319253,-4.339157,-2.482385,0.704986, 
183,12.259291,7.998866,-1.145038,-0.591622,9.082932,-3.134513,-0.616562,4.330079,-2.413958,-2.513329,4.219644,2.490693,0.520859,1.312317,-4.345983,-2.486324,0.704251, 
184,12.280931,8.01809,-1.14824,-0.593199,9.08952,-3.145022,-0.616448,4.329888,-2.421485,-2.506906,4.227501,2.495035,0.521545,1.305428,-4.352838,-2.490273,0.703521, 
185,12.302438,8.037196,-1.151417,-0.594756,9.096044,-3.155496,-0.616323,4.329688,-2.428968,-2.500517,4.235372,2.499377,0.522227,1.298587,-4.359718,-2.494229,0.702795, 
186,12.323765,8.056146,-1.15457,-0.596294,9.102488,-3.165942,-0.61619,4.329479,-2.436414,-2.494168,4.243258,2.503721,0.522906,1.291791,-4.36663,-2.498194,0.702074, 
187,12.344948,8.074954,-1.1577,-0.597812,9.10887,-3.176358,-0.616049,4.329254,-2.443816,-2.487855,4.251159,2.508071,0.523581,1.285042,-4.373575,-2.502169,0.701357, 
188,12.365967,8.093639,-1.160805,-0.599311,9.115167,-3.186746,-0.6159,4.32902,-2.451177,-2.481577,4.259079,2.512425,0.524252,1.278337,-4.380551,-2.506155,0.700646, 
189,12.386831,8.112194,-1.16389,-0.600791,9.121414,-3.197106,-0.615742,4.328771,-2.458495,-2.475336,4.267021,2.516783,0.52492,1.271676,-4.387564,-2.510152,0.699938, 
190,12.407543,8.130618,-1.166951,-0.602252,9.127594,-3.207436,-0.615577,4.328508,-2.46577,-2.469132,4.274984,2.521148,0.525584,1.265062,-4.39461,-2.514159,0.699235, 
191,12.428084,8.148917,-1.169991,-0.603694,9.133711,-3.21774,-0.615404,4.328233,-2.473009,-2.462964,4.282973,2.525517,0.526245,1.258492,-4.401696,-2.518178,0.698536, 
192,12.448494,8.167084,-1.173008,-0.605118,9.139761,-3.228017,-0.615225,4.327952,-2.480203,-2.456833,4.29098,2.529892,0.526901,1.251968,-4.408813,-2.522205,0.697842, 
193,12.468756,8.185126,-1.176003,-0.606524,9.145751,-3.238269,-0.615039,4.327668,-2.487357,-2.450738,4.299009,2.534273,0.527554,1.245488,-4.415968,-2.526249,0.697152, 
194,12.488877,8.203054,-1.178977,-0.607912,9.151682,-3.248492,-0.614847,4.327368,-2.494471,-2.44468,4.307064,2.538663,0.528204,1.239052,-4.423155,-2.530305,0.696467, 
195,12.50885,8.220868,-1.181931,-0.609282,9.157567,-3.258691,-0.614648,4.327059,-2.501545,-2.43866,4.315148,2.543058,0.52885,1.232662,-4.430387,-2.534375,0.695786, 
196,12.528687,8.238544,-1.184861,-0.610634,9.163384,-3.268864,-0.614443,4.326738,-2.50858,-2.432677,4.323256,2.547464,0.529492,1.226316,-4.437655,-2.538456,0.69511, 
197,12.548395,8.256108,-1.187774,-0.611969,9.169149,-3.279015,-0.614232,4.32641,-2.515576,-2.42673,4.33139,2.551877,0.53013,1.220014,-4.444958,-2.542552,0.694437, 
198,12.567953,8.273566,-1.190665,-0.613286,9.174856,-3.289147,-0.614015,4.326073,-2.522531,-2.420816,4.33955,2.556298,0.530765,1.213753,-4.452305,-2.546662,0.693769, 
199,12.587375,8.29091,-1.193536,-0.614587,9.180505,-3.299251,-0.613794,4.325723,-2.529446,-2.414939,4.347738,2.56073,0.531397,1.207535,-4.459694,-2.550786,0.693105, 
200,12.60667,8.308147,-1.196386,-0.61587,9.186109,-3.309334,-0.613567,4.325365,-2.536322,-2.409096,4.355956,2.565172,0.532025,1.20136,-4.467123,-2.554925,0.692445, 
201,12.625817,8.325259,-1.199219,-0.617137,9.191649,-3.319395,-0.613334,4.325005,-2.54316,-2.40329,4.364206,2.569623,0.532649,1.195227,-4.474592,-2.559078,0.691789, 
202,12.644853,8.342259,-1.202031,-0.618388,9.19715,-3.329436,-0.613097,4.324636,-2.54996,-2.39752,4.372485,2.574086,0.53327,1.189136,-4.482103,-2.563248,0.691138, 
203,12.66375,8.359144,-1.204825,-0.619622,9.202613,-3.33946,-0.612856,4.324263,-2.556718,-2.391783,4.380795,2.57856,0.533888,1.183088,-4.489657,-2.567434,0.69049, 
204,12.682511,8.375921,-1.2076,-0.62084,9.208021,-3.349465,-0.612611,4.323879,-2.56344,-2.386084,4.389139,2.583044,0.534502,1.17708,-4.497252,-2.571635,0.689847, 
205,12.70116,8.392592,-1.210357,-0.622043,9.213382,-3.359448,-0.612361,4.323484,-2.570123,-2.380418,4.397514,2.587541,0.535112,1.171113,-4.504891,-2.575853,0.689208, 
206,12.719686,8.409144,-1.213095,-0.62323,9.218688,-3.369412,-0.612106,4.323079,-2.576767,-2.374787,4.405921,2.592049,0.53572,1.165186,-4.512572,-2.580085,0.688573, 
207,12.738088,8.425599,-1.215815,-0.624401,9.223952,-3.379359,-0.611848,4.322664,-2.583375,-2.369189,4.414364,2.59657,0.536324,1.159298,-4.520299,-2.584336,0.687941, 
208,12.756357,8.441944,-1.218518,-0.625556,9.229165,-3.389288,-0.611586,4.322246,-2.589945,-2.363623,4.42284,2.601103,0.536924,1.153448,-4.528072,-2.588604,0.687313, 
209,12.77452,8.45819,-1.221202,-0.626697,9.234352,-3.399201,-0.61132,4.321823,-2.596476,-2.358093,4.431346,2.605648,0.537522,1.14764,-4.535883,-2.592889,0.68669, 
210,12.792568,8.474337,-1.223869,-0.627822,9.239483,-3.409098,-0.611052,4.321398,-2.602971,-2.352595,4.43989,2.610207,0.538116,1.14187,-4.543743,-2.597191,0.68607, 
211,12.810502,8.490378,-1.22652,-0.628932,9.244588,-3.418979,-0.610779,4.320971,-2.609427,-2.347131,4.448468,2.61478,0.538706,1.136138,-4.551647,-2.60151,0.685454, 
212,12.828309,8.506325,-1.229154,-0.630027,9.249635,-3.428845,-0.610504,4.320539,-2.615848,-2.3417,4.457081,2.619367,0.539294,1.130444,-4.559597,-2.605847,0.684841, 
213,12.84601,8.522171,-1.231769,-0.631109,9.254677,-3.438696,-0.610226,4.320101,-2.622233,-2.336303,4.465731,2.623967,0.539878,1.124791,-4.56759,-2.610202,0.684233, 
214,12.863604,8.537922,-1.23437,-0.632175,9.259661,-3.448534,-0.609945,4.319658,-2.628579,-2.330938,4.474414,2.628583,0.540459,1.119174,-4.575628,-2.614574,0.683628, 
215,12.881083,8.553574,-1.236952,-0.633226,9.264601,-3.45836,-0.609661,4.319207,-2.634892,-2.325604,4.483134,2.633213,0.541037,1.113592,-4.583712,-2.618967,0.683026, 
216,12.898454,8.569137,-1.239519,-0.634264,9.269504,-3.468174,-0.609374,4.318752,-2.641169,-2.320299,4.491889,2.637858,0.541612,1.108045,-4.591838,-2.623379,0.682428, 
217,12.915714,8.584617,-1.242071,-0.635288,9.274364,-3.477975,-0.609086,4.318289,-2.647407,-2.315025,4.500681,2.642518,0.542184,1.102532,-4.600014,-2.627811,0.681833, 
218,12.93287,8.599995,-1.244608,-0.636298,9.279202,-3.487762,-0.608794,4.317823,-2.653609,-2.309782,4.509512,2.647194,0.542753,1.097057,-4.608238,-2.632261,0.681243, 
219,12.949917,8.615286,-1.247128,-0.637294,9.284002,-3.497542,-0.608501,4.317354,-2.659776,-2.304569,4.518376,2.651883,0.543319,1.091616,-4.616507,-2.636731,0.680655, 
220,12.966854,8.630478,-1.249633,-0.638277,9.288774,-3.507309,-0.608205,4.316879,-2.665908,-2.299385,4.527278,2.656591,0.543882,1.08621,-4.624825,-2.64122,0.680071, 
221,12.983682,8.645577,-1.252124,-0.639246,9.293509,-3.517064,-0.607906,4.316397,-2.672005,-2.294233,4.53622,2.661314,0.544442,1.080839,-4.633187,-2.645728,0.67949, 
222,13.000417,8.660588,-1.254599,-0.640202,9.298203,-3.526812,-0.607607,4.315914,-2.678067,-2.289109,4.5452,2.666055,0.545,1.0755,-4.641597,-2.650257,0.678912, 
223,13.017049,8.675512,-1.257059,-0.641145,9.302876,-3.536549,-0.607305,4.315428,-2.684095,-2.284013,4.55422,2.670811,0.545555,1.070194,-4.650053,-2.654804,0.678338, 
224,13.033577,8.690352,-1.259505,-0.642075,9.307504,-3.546278,-0.607002,4.31494,-2.690085,-2.278946,4.563277,2.675584,0.546106,1.064922,-4.658556,-2.659373,0.677767, 
225,13.050008,8.705107,-1.261938,-0.642992,9.312099,-3.556,-0.606697,4.314448,-2.696042,-2.273907,4.572375,2.680377,0.546655,1.05968,-4.667105,-2.663962,0.677198, 
226,13.06634,8.719768,-1.264357,-0.643897,9.316673,-3.56571,-0.606391,4.313958,-2.701968,-2.268897,4.581509,2.685184,0.547201,1.054471,-4.675702,-2.668572,0.676633, 
227,13.08258,8.734344,-1.266759,-0.644788,9.321216,-3.575413,-0.606082,4.313463,-2.707857,-2.263916,4.590684,2.690008,0.547745,1.049294,-4.684346,-2.673201,0.676072, 
228,13.098718,8.748859,-1.269147,-0.645668,9.325717,-3.585111,-0.605772,4.312963,-2.713712,-2.258962,4.599896,2.694854,0.548286,1.044148,-4.693036,-2.677853,0.675513, 
229,13.114771,8.76329,-1.271521,-0.646535,9.33021,-3.594804,-0.605462,4.31246,-2.719535,-2.254033,4.609149,2.699717,0.548824,1.039031,-4.701772,-2.682524,0.674957, 
230,13.130719,8.777623,-1.273883,-0.647389,9.334675,-3.604489,-0.60515,4.311954,-2.725327,-2.249131,4.618443,2.704596,0.54936,1.033946,-4.710558,-2.687217,0.674404, 
231,13.146571,8.79188,-1.27623,-0.648231,9.339093,-3.614168,-0.604837,4.311444,-2.731081,-2.244256,4.627777,2.709495,0.549893,1.02889,-4.71939,-2.691929,0.673854, 
232,13.162343,8.806054,-1.278566,-0.649062,9.3435,-3.623842,-0.604523,4.310934,-2.736804,-2.239407,4.637146,2.714411,0.550423,1.023863,-4.72827,-2.696665,0.673307, 
233,13.178019,8.820156,-1.280887,-0.64988,9.347878,-3.633509,-0.604209,4.310421,-2.742492,-2.234585,4.646557,2.719346,0.550951,1.018867,-4.737191,-2.701422,0.672763, 
234,13.193604,8.834177,-1.283195,-0.650688,9.352221,-3.643175,-0.603892,4.309904,-2.748146,-2.229787,4.656004,2.7243,0.551476,1.013898,-4.746163,-2.7062,0.672221, 
235,13.209116,8.848129,-1.285488,-0.651483,9.356564,-3.652839,-0.603575,4.309384,-2.75377,-2.225013,4.665494,2.729273,0.551999,1.008958,-4.755181,-2.711001,0.671682, 
236,13.22453,8.862001,-1.287769,-0.652266,9.360878,-3.6625,-0.603257,4.308861,-2.759362,-2.220265,4.675024,2.734266,0.55252,1.004045,-4.764248,-2.715823,0.671146, 
237,13.239852,8.875787,-1.290036,-0.653038,9.365172,-3.672156,-0.602939,4.308341,-2.764919,-2.215543,4.684592,2.739278,0.553038,0.999161,-4.773362,-2.720667,0.670612, 
238,13.255084,8.889516,-1.29229,-0.653799,9.369431,-3.68181,-0.60262,4.307818,-2.770444,-2.210845,4.694201,2.744308,0.553554,0.994305,-4.782522,-2.725533,0.670081, 
239,13.270247,8.903171,-1.294533,-0.654549,9.373674,-3.691464,-0.602301,4.307298,-2.775937,-2.206168,4.70385,2.74936,0.554067,0.989474,-4.791723,-2.730422,0.669553, 
240,13.285321,8.916739,-1.296764,-0.655288,9.377893,-3.701116,-0.601981,4.306777,-2.781399,-2.201517,4.713539,2.754432,0.554578,0.98467,-4.800978,-2.735334,0.669028, 
241,13.300309,8.930238,-1.298981,-0.656015,9.38209,-3.710763,-0.601661,4.306253,-2.786827,-2.196889,4.723265,2.759523,0.555088,0.979892,-4.810277,-2.740267,0.668504, 
242,13.315226,8.943672,-1.301187,-0.656732,9.386271,-3.720415,-0.601341,4.305727,-2.792227,-2.192283,4.733033,2.764634,0.555594,0.975139,-4.819616,-2.745223,0.667983, 
243,13.330043,8.957033,-1.303381,-0.657438,9.390432,-3.730063,-0.60102,4.305199,-2.797596,-2.187699,4.74284,2.769764,0.556099,0.970412,-4.829007,-2.750201,0.667465, 
244,13.3448,8.970323,-1.305564,-0.658133,9.39457,-3.739711,-0.6007,4.304669,-2.802934,-2.18314,4.752687,2.774916,0.556602,0.965709,-4.838444,-2.755204,0.666949, 
245,13.359467,8.983531,-1.307735,-0.658818,9.398687,-3.749358,-0.600379,4.30414,-2.808242,-2.1786,4.762572,2.78009,0.557103,0.961031,-4.847926,-2.760228,0.666435, 
246,13.37405,8.996691,-1.309895,-0.659493,9.40279,-3.759008,-0.600057,4.303611,-2.813522,-2.174083,4.772501,2.785285,0.557601,0.956377,-4.857454,-2.765276,0.665924, 
247,13.388556,9.009776,-1.312043,-0.660157,9.40687,-3.76866,-0.599734,4.303081,-2.818769,-2.169584,4.782463,2.7905,0.558098,0.951746,-4.867028,-2.770349,0.665415, 
248,13.402994,9.022783,-1.314179,-0.660811,9.410932,-3.778313,-0.599411,4.302549,-2.823986,-2.165108,4.792466,2.795737,0.558592,0.947139,-4.876644,-2.775444,0.664908, 
249,13.417356,9.035744,-1.316306,-0.661455,9.414974,-3.787969,-0.599089,4.302017,-2.829173,-2.160652,4.802506,2.800994,0.559084,0.942554,-4.886308,-2.780562,0.664403, 
250,13.431634,9.048627,-1.318422,-0.662088,9.419006,-3.797625,-0.598766,4.301483,-2.834326,-2.156218,4.81259,2.806273,0.559574,0.937993,-4.896015,-2.785705,0.663901, 
251,13.445835,9.061436,-1.320525,-0.662711,9.423025,-3.807287,-0.598444,4.300948,-2.839454,-2.151803,4.822713,2.811573,0.560063,0.933454,-4.905768,-2.790871,0.6634, 
252,13.459982,9.074176,-1.322619,-0.663324,9.427034,-3.81695,-0.598121,4.300413,-2.844552,-2.147409,4.832873,2.816894,0.560549,0.928938,-4.915566,-2.79606,0.662902, 
253,13.474043,9.086868,-1.324702,-0.663927,9.43101,-3.82662,-0.597799,4.299877,-2.849623,-2.143033,4.843073,2.822238,0.561034,0.924443,-4.925408,-2.801272,0.662406, 
254,13.488029,9.099489,-1.326775,-0.66452,9.434968,-3.836293,-0.597477,4.299345,-2.854666,-2.138676,4.853312,2.827605,0.561517,0.919967,-4.935294,-2.80651,0.661912, 
255,13.501937,9.112054,-1.328837,-0.665104,9.438906,-3.845973,-0.597155,4.298811,-2.859679,-2.134336,4.86359,2.832994,0.561998,0.915511,-4.94522,-2.811772,0.66142, 
256,13.515777,9.124557,-1.330886,-0.665679,9.44284,-3.855655,-0.596833,4.298278,-2.864662,-2.130015,4.873905,2.838406,0.562478,0.911075,-4.955192,-2.817059,0.66093, 
257,13.52955,9.137002,-1.332926,-0.666243,9.446756,-3.865343,-0.596511,4.297745,-2.869613,-2.125714,4.884259,2.843841,0.562956,0.906661,-4.965208,-2.82237,0.660442, 
258,13.54326,9.149379,-1.334958,-0.666799,9.450667,-3.875033,-0.59619,4.297213,-2.874539,-2.121431,4.894652,2.849298,0.563431,0.902268,-4.975272,-2.827707,0.659956, 
259,13.55689,9.161702,-1.336978,-0.667345,9.454571,-3.88473,-0.595869,4.296682,-2.879438,-2.117166,4.905081,2.854779,0.563905,0.897896,-4.985378,-2.833066,0.659471, 
260,13.570459,9.173953,-1.338989,-0.667882,9.458446,-3.894436,-0.595549,4.29615,-2.884307,-2.11292,4.915548,2.860282,0.564377,0.893543,-4.995528,-2.83845,0.658989, 
261,13.583953,9.186163,-1.340989,-0.66841,9.462318,-3.904149,-0.595229,4.295619,-2.88915,-2.10869,4.926053,2.865808,0.564848,0.889209,-5.005716,-2.843859,0.658509, 
262,13.597386,9.198305,-1.342979,-0.668929,9.466174,-3.913869,-0.594908,4.295087,-2.893963,-2.104476,4.936597,2.871359,0.565318,0.884893,-5.015948,-2.849293,0.65803, 
263,13.610749,9.21038,-1.34496,-0.669437,9.470029,-3.923595,-0.594589,4.294556,-2.898749,-2.100281,4.947179,2.876931,0.565786,0.880595,-5.026222,-2.854753,0.657553, 
264,13.624043,9.22241,-1.346932,-0.669937,9.473866,-3.933328,-0.59427,4.294025,-2.90351,-2.096102,4.957798,2.882526,0.566252,0.876317,-5.036537,-2.86024,0.657077, 
265,13.637273,9.234377,-1.348894,-0.670429,9.477697,-3.943069,-0.593952,4.293494,-2.908242,-2.091941,4.968455,2.888145,0.566716,0.872058,-5.046896,-2.865751,0.656604, 
266,13.650438,9.246273,-1.350846,-0.670912,9.481506,-3.952817,-0.593634,4.292965,-2.912947,-2.087796,4.97915,2.893788,0.567179,0.867816,-5.057296,-2.871286,0.656132, 
267,13.663535,9.258138,-1.352789,-0.671387,9.485323,-3.962575,-0.593316,4.292437,-2.917627,-2.083666,4.98988,2.899455,0.56764,0.863593,-5.067735,-2.876849,0.655662, 
268,13.676583,9.269921,-1.354722,-0.671852,9.489115,-3.972342,-0.592997,4.291903,-2.92228,-2.079553,5.000643,2.905146,0.5681,0.859386,-5.078218,-2.882438,0.655193, 
269,13.689546,9.281674,-1.356647,-0.672309,9.492884,-3.982116,-0.59268,4.291371,-2.926908,-2.075453,5.011446,2.910864,0.568559,0.855196,-5.088742,-2.888052,0.654727, 
270,13.702464,9.293342,-1.358563,-0.672757,9.496654,-3.9919,-0.592364,4.290839,-2.931506,-2.07137,5.022285,2.916604,0.569016,0.851023,-5.099307,-2.893694,0.654261, 
271,13.715324,9.304976,-1.360469,-0.673197,9.500403,-4.001695,-0.592049,4.290309,-2.936081,-2.067299,5.033161,2.922367,0.569471,0.846865,-5.109911,-2.899362,0.653798, 
272,13.728114,9.31654,-1.362366,-0.673628,9.504154,-4.011497,-0.591734,4.289781,-2.940632,-2.063245,5.044072,2.928157,0.569926,0.842724,-5.120554,-2.905054,0.653335, 
273,13.740851,9.328069,-1.364254,-0.674051,9.507893,-4.021309,-0.591419,4.289254,-2.945156,-2.059207,5.055017,2.933972,0.570378,0.8386,-5.131237,-2.910772,0.652874, 
274,13.753513,9.339537,-1.366134,-0.674466,9.511633,-4.031129,-0.591105,4.288726,-2.949655,-2.055183,5.065999,2.939811,0.57083,0.834493,-5.141959,-2.916517,0.652415, 
275,13.766129,9.350964,-1.368003,-0.674872,9.515368,-4.040964,-0.590792,4.2882,-2.954128,-2.051176,5.077014,2.945677,0.57128,0.830402,-5.152719,-2.922287,0.651957, 
276,13.778678,9.362334,-1.369864,-0.675271,9.519084,-4.050807,-0.590479,4.287676,-2.95858,-2.047181,5.088064,2.951567,0.571729,0.826327,-5.163514,-2.928084,0.6515, 
277,13.791174,9.373651,-1.371719,-0.675662,9.522792,-4.060664,-0.590166,4.287154,-2.963002,-2.043201,5.099151,2.957481,0.572176,0.822266,-5.174348,-2.93391,0.651046, 
278,13.803606,9.384906,-1.373563,-0.676045,9.526482,-4.070532,-0.589855,4.286634,-2.967401,-2.039232,5.110266,2.963424,0.572622,0.818219,-5.18522,-2.939761,0.650592, 
279,13.815989,9.396119,-1.375399,-0.676419,9.530165,-4.080404,-0.589543,4.286115,-2.971775,-2.035279,5.121419,2.969389,0.573067,0.814188,-5.196128,-2.945639,0.650139, 
280,13.828308,9.407279,-1.377228,-0.676787,9.533839,-4.090302,-0.589233,4.285596,-2.976121,-2.031338,5.132605,2.975382,0.57351,0.810171,-5.207079,-2.951543,0.649688, 
281,13.840573,9.418387,-1.379048,-0.677145,9.537526,-4.100202,-0.588924,4.28508,-2.980449,-2.027412,5.143825,2.9814,0.573952,0.806169,-5.218065,-2.957475,0.649239, 
282,13.852785,9.429453,-1.380859,-0.677497,9.541204,-4.110118,-0.588616,4.284564,-2.984751,-2.023499,5.155077,2.987444,0.574393,0.802183,-5.229085,-2.963434,0.648791, 
283,13.864936,9.44046,-1.382664,-0.67784,9.544869,-4.120051,-0.588308,4.28405,-2.989028,-2.019598,5.166358,2.993515,0.574833,0.798209,-5.240144,-2.969421,0.648344, 
284,13.877032,9.451429,-1.38446,-0.678176,9.548516,-4.129994,-0.588001,4.283538,-2.993284,-2.015709,5.177676,2.999612,0.575272,0.794249,-5.251237,-2.975435,0.647899, 
285,13.889089,9.462345,-1.386247,-0.678505,9.552152,-4.139952,-0.587693,4.283027,-2.997514,-2.01183,5.189026,3.005733,0.575709,0.790301,-5.262368,-2.981478,0.647454, 
286,13.901064,9.473215,-1.388027,-0.678826,9.555777,-4.149921,-0.587387,4.282517,-3.001721,-2.007964,5.200409,3.011882,0.576146,0.786365,-5.273532,-2.987549,0.647011, 
287,13.913003,9.484035,-1.389799,-0.679139,9.559426,-4.159904,-0.587082,4.28201,-3.005907,-2.004112,5.21182,3.018057,0.576581,0.782445,-5.284729,-2.993648,0.646569, 
288,13.924883,9.49482,-1.391562,-0.679444,9.563063,-4.169899,-0.586778,4.281504,-3.010067,-2.000275,5.223258,3.024259,0.577015,0.77854,-5.295959,-2.999774,0.646129, 
289,13.936712,9.505547,-1.393321,-0.679743,9.566708,-4.179907,-0.586474,4.281,-3.014205,-1.996451,5.234732,3.030488,0.577448,0.77465,-5.307226,-3.005929,0.645689, 
290,13.948495,9.516234,-1.395069,-0.680034,9.570333,-4.189935,-0.586172,4.280499,-3.01832,-1.992638,5.246237,3.036744,0.57788,0.770772,-5.318526,-3.012112,0.645251, 
291,13.960221,9.526879,-1.39681,-0.680318,9.573951,-4.199976,-0.585871,4.279999,-3.022413,-1.988834,5.257769,3.043028,0.578311,0.766905,-5.329856,-3.018323,0.644814, 
292,13.971891,9.537479,-1.398545,-0.680595,9.57757,-4.210028,-0.585571,4.2795,-3.026485,-1.985045,5.269331,3.04934,0.578741,0.763052,-5.341224,-3.024564,0.644379, 
293,13.983519,9.548027,-1.400271,-0.680865,9.581182,-4.220094,-0.585271,4.279002,-3.030535,-1.981268,5.280921,3.055676,0.579169,0.759212,-5.352625,-3.030832,0.643944, 
294,13.995093,9.558526,-1.40199,-0.681128,9.584789,-4.230169,-0.584972,4.278506,-3.034562,-1.977503,5.292536,3.062042,0.579596,0.755388,-5.364055,-3.037127,0.643511, 
295,14.006617,9.568986,-1.403701,-0.681384,9.588386,-4.240271,-0.584674,4.278011,-3.038565,-1.973748,5.304182,3.068435,0.580022,0.751573,-5.375515,-3.043454,0.643079, 
296,14.018091,9.579399,-1.405406,-0.681633,9.591977,-4.250385,-0.584377,4.277518,-3.042548,-1.970005,5.315858,3.074858,0.580448,0.747771,-5.387008,-3.049808,0.642648, 
297,14.029516,9.589783,-1.407104,-0.681875,9.595562,-4.26051,-0.584079,4.277027,-3.046509,-1.966272,5.327561,3.081307,0.580872,0.74398,-5.39853,-3.056192,0.642218, 
298,14.040889,9.600108,-1.408793,-0.682111,9.59918,-4.270654,-0.583782,4.276537,-3.050449,-1.962553,5.339291,3.087785,0.581296,0.740203,-5.410083,-3.062604,0.641789, 
299,14.052223,9.610406,-1.410476,-0.682339,9.602783,-4.280817,-0.583486,4.276051,-3.054367,-1.958845,5.351045,3.09429,0.581718,0.736439,-5.421665,-3.069046,0.641361, 
300,14.063503,9.620646,-1.412152,-0.68256,9.606374,-4.290987,-0.583192,4.275566,-3.058267,-1.955149,5.362825,3.100822,0.582139,0.732687,-5.433276,-3.075515,0.640935, 
301,14.07475,9.630848,-1.413822,-0.682775,9.609962,-4.301178,-0.582899,4.275082,-3.062142,-1.951464,5.374634,3.107384,0.582559,0.728948,-5.444916,-3.082014,0.640509, 
302,14.085936,9.641015,-1.415484,-0.682983,9.613544,-4.311381,-0.582607,4.274601,-3.065999,-1.947791,5.386467,3.113974,0.582978,0.72522,-5.456581,-3.088543,0.640085, 
303,14.097068,9.65113,-1.417139,-0.683185,9.617113,-4.321603,-0.582314,4.274117,-3.069834,-1.944127,5.398325,3.120593,0.583396,0.721503,-5.468275,-3.095102,0.639662, 
304,14.108165,9.661208,-1.418788,-0.683381,9.62069,-4.331838,-0.582023,4.273636,-3.073651,-1.940474,5.41021,3.127241,0.583813,0.717798,-5.479999,-3.101691,0.63924, 
305,14.119214,9.671238,-1.420429,-0.68357,9.624268,-4.342087,-0.581733,4.273154,-3.077445,-1.936834,5.422116,3.133916,0.584229,0.714105,-5.491748,-3.10831,0.638819, 
306,14.130212,9.681234,-1.422064,-0.683753,9.627837,-4.352362,-0.581445,4.272673,-3.08122,-1.933203,5.434045,3.140622,0.584644,0.710423,-5.503526,-3.114957,0.638399, 
307,14.141175,9.691189,-1.423692,-0.683928,9.631388,-4.362639,-0.581156,4.272193,-3.084975,-1.929583,5.445998,3.147356,0.585058,0.706753,-5.515328,-3.121634,0.63798, 
308,14.152088,9.701111,-1.425315,-0.684098,9.634933,-4.372948,-0.580868,4.271716,-3.088709,-1.925971,5.457975,3.15412,0.585472,0.703092,-5.527157,-3.128342,0.637562, 
309,14.162947,9.71099,-1.426929,-0.684262,9.638482,-4.38327,-0.580581,4.27124,-3.092422,-1.92237,5.469974,3.160913,0.585885,0.699442,-5.539009,-3.135079,0.637145, 
310,14.173757,9.72082,-1.428538,-0.684419,9.642046,-4.393605,-0.580295,4.270765,-3.096116,-1.918781,5.481997,3.167735,0.586296,0.695804,-5.550883,-3.141847,0.636729, 
311,14.184542,9.730632,-1.430141,-0.68457,9.645611,-4.403951,-0.58001,4.270287,-3.099795,-1.915204,5.494041,3.174587,0.586706,0.69218,-5.562781,-3.148646,0.636314, 
312,14.195271,9.74039,-1.431738,-0.684716,9.649178,-4.414324,-0.579727,4.26981,-3.10345,-1.911639,5.506107,3.181466,0.587115,0.688568,-5.574703,-3.155473,0.6359, 
313,14.205958,9.750118,-1.433328,-0.684856,9.65274,-4.424716,-0.579445,4.269334,-3.107089,-1.908081,5.518187,3.188378,0.587524,0.684964,-5.586649,-3.162332,0.635487, 
314,14.21661,9.759814,-1.434912,-0.684989,9.656299,-4.435117,-0.579163,4.268857,-3.110706,-1.904535,5.53029,3.195317,0.587931,0.681373,-5.598615,-3.169221,0.635075, 
315,14.227206,9.769451,-1.436489,-0.685117,9.659848,-4.445539,-0.578882,4.26838,-3.114307,-1.900998,5.54241,3.202288,0.588338,0.677791,-5.610606,-3.176141,0.634664, 
316,14.237776,9.779059,-1.438059,-0.685238,9.663409,-4.45597,-0.578602,4.267903,-3.117887,-1.897474,5.554552,3.209287,0.588743,0.674222,-5.622615,-3.183092,0.634254, 
317,14.248302,9.788636,-1.439626,-0.685353,9.666961,-4.466424,-0.578323,4.267428,-3.12145,-1.893961,5.566711,3.216317,0.589148,0.670665,-5.634646,-3.190074,0.633846, 
318,14.258796,9.79817,-1.441184,-0.685463,9.670504,-4.476894,-0.578045,4.266955,-3.124993,-1.890457,5.578888,3.223375,0.589552,0.667119,-5.646697,-3.197087,0.633438, 
319,14.269236,9.807662,-1.442738,-0.685567,9.674062,-4.487379,-0.577767,4.266485,-3.128516,-1.886966,5.59108,3.230462,0.589954,0.663585,-5.658766,-3.204131,0.633031, 
320,14.279631,9.817128,-1.444285,-0.685666,9.677621,-4.49788,-0.577491,4.266017,-3.132023,-1.883486,5.603287,3.237582,0.590356,0.660063,-5.670854,-3.211204,0.632625, 
321,14.289988,9.826568,-1.445825,-0.685759,9.681179,-4.508402,-0.577216,4.265551,-3.135508,-1.880015,5.615516,3.244732,0.590756,0.656552,-5.682961,-3.218309,0.632221, 
322,14.300303,9.835958,-1.447359,-0.685846,9.68473,-4.51894,-0.576941,4.265088,-3.138978,-1.876556,5.627758,3.251911,0.591156,0.653053,-5.695086,-3.225445,0.631818, 
323,14.310588,9.845324,-1.448888,-0.685928,9.68829,-4.529495,-0.576667,4.264627,-3.142428,-1.873107,5.640016,3.259121,0.591555,0.649564,-5.707231,-3.232611,0.631415, 
324,14.320827,9.854646,-1.450412,-0.686006,9.691848,-4.540068,-0.576394,4.264169,-3.145864,-1.86967,5.652287,3.266361,0.591952,0.646087,-5.719387,-3.239809,0.631014, 
325,14.331026,9.863918,-1.451929,-0.686077,9.695402,-4.550661,-0.576121,4.263708,-3.149278,-1.866242,5.664569,3.273633,0.592349,0.64262,-5.731561,-3.247039,0.630613, 
326,14.341175,9.873181,-1.453442,-0.686142,9.698951,-4.561259,-0.57585,4.263249,-3.152679,-1.862826,5.676867,3.280934,0.592745,0.639165,-5.743749,-3.254299,0.630214, 
327,14.35129,9.8824,-1.454948,-0.686202,9.702489,-4.571882,-0.57558,4.262791,-3.156062,-1.85942,5.689179,3.288266,0.59314,0.635721,-5.755953,-3.261592,0.629815, 
328,14.361376,9.891579,-1.456449,-0.686257,9.706031,-4.582522,-0.57531,4.262335,-3.159425,-1.856023,5.701505,3.29563,0.593534,0.632287,-5.76817,-3.268914,0.629418, 
329,14.37142,9.900735,-1.457945,-0.686307,9.709579,-4.593169,-0.575042,4.261882,-3.162772,-1.852639,5.71384,3.303023,0.593926,0.628867,-5.780407,-3.276269,0.629021, 
330,14.381428,9.90985,-1.459435,-0.686352,9.713123,-4.603844,-0.574774,4.261432,-3.166102,-1.849265,5.726184,3.310447,0.594319,0.625456,-5.792652,-3.283653,0.628626, 
331,14.391391,9.918933,-1.460921,-0.686392,9.71667,-4.614528,-0.574508,4.260983,-3.169417,-1.845903,5.738541,3.317902,0.594709,0.622058,-5.804909,-3.29107,0.628231, 
332,14.40134,9.927986,-1.462398,-0.686426,9.720227,-4.625226,-0.574242,4.260535,-3.172712,-1.842554,5.750907,3.325389,0.595099,0.618673,-5.817176,-3.298519,0.627838, 
333,14.411227,9.937009,-1.463871,-0.686456,9.723781,-4.635944,-0.573976,4.260088,-3.175993,-1.839215,5.763283,3.332905,0.595488,0.615299,-5.829452,-3.305999,0.627446, 
334,14.421078,9.945996,-1.465339,-0.68648,9.727329,-4.64667,-0.573712,4.259645,-3.179257,-1.835889,5.775666,3.340452,0.595876,0.611938,-5.84174,-3.313509,0.627055, 
335,14.430909,9.954948,-1.466801,-0.6865,9.730873,-4.657414,-0.573449,4.259203,-3.182505,-1.832574,5.788057,3.348029,0.596262,0.608589,-5.854041,-3.321052,0.626665, 
336,14.440694,9.963867,-1.468258,-0.686515,9.734414,-4.668184,-0.573187,4.258763,-3.185737,-1.829268,5.80046,3.355638,0.596647,0.60525,-5.86635,-3.328626,0.626276, 
337,14.450435,9.972755,-1.46971,-0.686524,9.737949,-4.678967,-0.572925,4.258327,-3.188949,-1.825972,5.812865,3.363277,0.597033,0.601921,-5.878667,-3.336232,0.625888, 
338,14.460152,9.981615,-1.471156,-0.68653,9.741479,-4.689758,-0.572663,4.257891,-3.192147,-1.822688,5.825278,3.370948,0.597416,0.598605,-5.890993,-3.343872,0.625501, 
339,14.469838,9.990438,-1.472598,-0.68653,9.745018,-4.700568,-0.572402,4.257459,-3.195328,-1.819417,5.837697,3.378651,0.597799,0.595302,-5.903327,-3.351543,0.625115, 
340,14.479467,9.999225,-1.474034,-0.686525,9.748556,-4.711394,-0.572144,4.25703,-3.198493,-1.816157,5.85012,3.386384,0.59818,0.592011,-5.915663,-3.359244,0.62473, 
341,14.489078,10.007985,-1.475464,-0.686517,9.752108,-4.722239,-0.571886,4.256603,-3.201646,-1.812908,5.862545,3.394147,0.598561,0.588731,-5.928006,-3.366978,0.624346, 
342,14.498642,10.016711,-1.476892,-0.686504,9.755658,-4.733096,-0.57163,4.256179,-3.204781,-1.809671,5.874974,3.401943,0.598941,0.585463,-5.940357,-3.374743,0.623964, 
343,14.508177,10.025405,-1.478311,-0.686486,9.759214,-4.743962,-0.571374,4.255757,-3.2079,-1.806448,5.887408,3.40977,0.599319,0.582209,-5.952709,-3.382541,0.623582, 
344,14.517678,10.03407,-1.479726,-0.686463,9.762774,-4.754848,-0.571118,4.255337,-3.211008,-1.803237,5.89984,3.417629,0.599696,0.578968,-5.965069,-3.39037,0.623202, 
345,14.527158,10.042714,-1.481138,-0.686436,9.766354,-4.765744,-0.570863,4.254915,-3.214098,-1.800038,5.912277,3.425518,0.600072,0.57574,-5.97743,-3.398232,0.622823, 
346,14.536602,10.051322,-1.482544,-0.686405,9.769926,-4.776655,-0.57061,4.254495,-3.21717,-1.796854,5.924715,3.433438,0.600447,0.572527,-5.989791,-3.406123,0.622446, 
347,14.545994,10.059898,-1.483945,-0.686369,9.773485,-4.787572,-0.570358,4.254076,-3.22023,-1.793683,5.937154,3.441387,0.60082,0.569327,-6.002159,-3.414047,0.62207, 
348,14.555347,10.068447,-1.485342,-0.68633,9.777042,-4.798515,-0.570106,4.253659,-3.223275,-1.790522,5.94959,3.449368,0.601193,0.566136,-6.014525,-3.422002,0.621695, 
349,14.564684,10.076963,-1.486733,-0.686286,9.780598,-4.809473,-0.569855,4.253244,-3.226302,-1.787371,5.962027,3.457381,0.601564,0.562958,-6.026894,-3.42999,0.62132, 
350,14.573992,10.085456,-1.488119,-0.686237,9.784159,-4.820436,-0.569604,4.252831,-3.229318,-1.784233,5.974463,3.465427,0.601934,0.559793,-6.039262,-3.438009,0.620947, 
351,14.583259,10.093923,-1.489503,-0.686185,9.787728,-4.831415,-0.569354,4.252421,-3.232317,-1.781108,5.986893,3.473503,0.602303,0.556642,-6.051626,-3.446061,0.620575, 
352,14.5925,10.102357,-1.490878,-0.686129,9.791292,-4.842409,-0.569106,4.252014,-3.235301,-1.777996,5.999325,3.481609,0.602671,0.553503,-6.06399,-3.454144,0.620205, 
353,14.601694,10.110757,-1.492251,-0.686068,9.794852,-4.853416,-0.568859,4.25161,-3.238273,-1.774897,6.011752,3.489747,0.603038,0.550377,-6.07635,-3.46226,0.619835, 
354,14.610867,10.119124,-1.49362,-0.686004,9.798409,-4.864443,-0.568612,4.251207,-3.24123,-1.771808,6.024176,3.497916,0.603404,0.547261,-6.088711,-3.470406,0.619467, 
355,14.620005,10.127476,-1.494981,-0.685935,9.801971,-4.875474,-0.568367,4.250805,-3.244172,-1.768733,6.036594,3.506117,0.603769,0.54416,-6.101067,-3.478585,0.6191, 
356,14.629099,10.135803,-1.496341,-0.685863,9.805528,-4.886511,-0.568121,4.250407,-3.247102,-1.765671,6.049011,3.51435,0.604132,0.541073,-6.11342,-3.486794,0.618734, 
357,14.638172,10.144079,-1.497694,-0.685788,9.809081,-4.897573,-0.567877,4.25001,-3.250017,-1.762622,6.06142,3.522612,0.604494,0.537998,-6.125767,-3.495035,0.618369, 
358,14.64722,10.152335,-1.499044,-0.685709,9.81263,-4.908636,-0.567634,4.249616,-3.252919,-1.759584,6.073822,3.530905,0.604855,0.534935,-6.138109,-3.503307,0.618005, 
359,14.656228,10.160573,-1.500388,-0.685626,9.816175,-4.919711,-0.567392,4.249225,-3.255808,-1.756561,6.086214,3.539229,0.605215,0.531887,-6.150442,-3.511611,0.617643, 
360,14.665221,10.168781,-1.501727,-0.68554,9.819715,-4.930798,-0.56715,4.248835,-3.25868,-1.753549,6.098599,3.547585,0.605574,0.528852,-6.162771,-3.519947,0.617282, 
361,14.674188,10.176949,-1.503063,-0.68545,9.823261,-4.941894,-0.56691,4.248444,-3.261539,-1.750552,6.110979,3.555969,0.605931,0.525831,-6.175093,-3.528312,0.616922, 
362,14.68309,10.185101,-1.504395,-0.685356,9.826809,-4.953003,-0.56667,4.248053,-3.264385,-1.747568,6.123346,3.564387,0.606287,0.522822,-6.187407,-3.536711,0.616564, 
363,14.691986,10.193238,-1.505721,-0.685259,9.830365,-4.964118,-0.56643,4.247665,-3.267216,-1.744599,6.135702,3.572834,0.606642,0.51983,-6.19971,-3.545141,0.616206, 
364,14.700862,10.20134,-1.507044,-0.685159,9.833923,-4.975247,-0.566192,4.247279,-3.270034,-1.741643,6.148048,3.581312,0.606995,0.516851,-6.212006,-3.553601,0.615851, 
365,14.70969,10.209407,-1.508361,-0.685055,9.837487,-4.986385,-0.565954,4.246894,-3.272843,-1.738701,6.160379,3.589823,0.607347,0.513887,-6.22429,-3.562092,0.615497, 
366,14.718484,10.217447,-1.509675,-0.684947,9.841057,-4.997526,-0.565717,4.246508,-3.275639,-1.735774,6.172703,3.598362,0.607698,0.510938,-6.236565,-3.570614,0.615144, 
367,14.727255,10.225471,-1.510985,-0.684835,9.84463,-5.008684,-0.565482,4.246124,-3.27842,-1.73286,6.185013,3.606933,0.608047,0.508002,-6.248827,-3.579166,0.614792, 
368,14.736009,10.233467,-1.51229,-0.68472,9.848217,-5.019852,-0.565248,4.245739,-3.281189,-1.729961,6.197313,3.615532,0.608395,0.505081,-6.261077,-3.58775,0.614441, 
369,14.744721,10.241438,-1.513592,-0.684603,9.851798,-5.031026,-0.565014,4.245356,-3.283943,-1.727077,6.209595,3.624163,0.608742,0.502175,-6.273316,-3.596364,0.614092, 
370,14.753416,10.249369,-1.514888,-0.684483,9.855369,-5.042207,-0.564781,4.244976,-3.286683,-1.724205,6.221863,3.632823,0.609088,0.499283,-6.285541,-3.605011,0.613744, 
371,14.76208,10.25728,-1.516181,-0.68436,9.858936,-5.053396,-0.564549,4.244597,-3.289413,-1.721347,6.234118,3.641513,0.609432,0.496406,-6.297753,-3.613688,0.613398, 
372,14.770716,10.265173,-1.517471,-0.684233,9.862501,-5.064589,-0.564318,4.244218,-3.29213,-1.718505,6.246356,3.650235,0.609774,0.493542,-6.309947,-3.622396,0.613053, 
373,14.779313,10.273046,-1.518753,-0.684103,9.866073,-5.075796,-0.564086,4.243842,-3.294832,-1.715676,6.258579,3.658987,0.610116,0.490694,-6.322129,-3.631133,0.612709, 
374,14.787884,10.28088,-1.520034,-0.68397,9.869638,-5.086998,-0.563857,4.243468,-3.297521,-1.712863,6.270788,3.667769,0.610456,0.487861,-6.334295,-3.639901,0.612367, 
375,14.796426,10.288688,-1.52131,-0.683835,9.873199,-5.098208,-0.563628,4.243095,-3.300203,-1.710065,6.282977,3.676579,0.610794,0.485043,-6.346446,-3.6487,0.612027, 
376,14.804944,10.296487,-1.522582,-0.683698,9.876757,-5.109427,-0.563399,4.242725,-3.302872,-1.70728,6.29515,3.685422,0.611132,0.48224,-6.358581,-3.657529,0.611687, 
377,14.813431,10.30426,-1.52385,-0.683558,9.880316,-5.120654,-0.563172,4.242358,-3.305526,-1.70451,6.307303,3.694292,0.611468,0.479451,-6.370694,-3.666388,0.611349, 
378,14.821897,10.312002,-1.525113,-0.683414,9.883875,-5.131878,-0.562945,4.241992,-3.308169,-1.701757,6.319436,3.703192,0.611802,0.476679,-6.382792,-3.675275,0.611013, 
379,14.830341,10.319709,-1.526372,-0.683267,9.887434,-5.143121,-0.56272,4.241626,-3.310799,-1.699016,6.33155,3.71212,0.612135,0.47392,-6.39487,-3.684192,0.610678, 
380,14.838749,10.327413,-1.527627,-0.683118,9.890994,-5.154366,-0.562495,4.241259,-3.313417,-1.69629,6.343647,3.721081,0.612467,0.471175,-6.406929,-3.693141,0.610344, 
381,14.847138,10.335089,-1.52888,-0.682967,9.894548,-5.165617,-0.56227,4.240892,-3.316023,-1.693579,6.355721,3.730069,0.612798,0.468445,-6.418971,-3.702119,0.610012, 
382,14.855484,10.342737,-1.530126,-0.682812,9.8981,-5.176874,-0.562047,4.240524,-3.318617,-1.690883,6.367774,3.739087,0.613127,0.46573,-6.430991,-3.711127,0.609682, 
383,14.863811,10.350357,-1.531372,-0.682656,9.901645,-5.188128,-0.561824,4.240157,-3.321203,-1.6882,6.379807,3.748132,0.613455,0.46303,-6.442991,-3.720163,0.609352, 
384,14.872111,10.357957,-1.532613,-0.682497,9.905187,-5.199385,-0.561602,4.239791,-3.323776,-1.685533,6.391814,3.757207,0.613781,0.460346,-6.454965,-3.72923,0.609024, 
385,14.880394,10.365541,-1.533847,-0.682335,9.908735,-5.210648,-0.561381,4.239428,-3.326337,-1.682881,6.4038,3.766311,0.614105,0.457678,-6.466919,-3.738325,0.608697, 
386,14.888635,10.37309,-1.535081,-0.682171,9.91228,-5.221908,-0.56116,4.239066,-3.328885,-1.680246,6.415763,3.775443,0.614428,0.455026,-6.478849,-3.747448,0.608373, 
387,14.896857,10.380621,-1.536311,-0.682006,9.915821,-5.233178,-0.56094,4.238706,-3.331423,-1.677626,6.427701,3.784604,0.61475,0.452389,-6.490758,-3.756602,0.608049, 
388,14.905061,10.388139,-1.537535,-0.681838,9.91937,-5.244442,-0.56072,4.238349,-3.33395,-1.675021,6.439612,3.793794,0.61507,0.449768,-6.502643,-3.765782,0.607727, 
389,14.913244,10.395626,-1.538756,-0.681668,9.922916,-5.255704,-0.560502,4.237995,-3.336465,-1.672434,6.451499,3.803013,0.61539,0.447164,-6.514501,-3.774993,0.607406, 
390,14.921393,10.403075,-1.539976,-0.681496,9.926467,-5.266971,-0.560284,4.237641,-3.338965,-1.669863,6.46336,3.812258,0.615707,0.444578,-6.526335,-3.78423,0.607088, 
391,14.929514,10.410505,-1.541191,-0.681322,9.930025,-5.278238,-0.560067,4.237291,-3.341456,-1.667309,6.475195,3.82153,0.616022,0.442008,-6.538143,-3.793498,0.606771, 
392,14.937611,10.417929,-1.5424,-0.681144,9.933578,-5.289504,-0.559852,4.236938,-3.34394,-1.664771,6.487003,3.83083,0.616336,0.439454,-6.549926,-3.802794,0.606455, 
393,14.945675,10.425328,-1.543607,-0.680965,9.937134,-5.300766,-0.559637,4.236588,-3.346414,-1.662249,6.498787,3.840158,0.616648,0.436917,-6.561685,-3.812118,0.606141, 
394,14.953721,10.432699,-1.544811,-0.680785,9.940686,-5.31203,-0.559422,4.236238,-3.348874,-1.659743,6.510543,3.849514,0.616959,0.434396,-6.573411,-3.821468,0.605829, 
395,14.961757,10.440033,-1.546009,-0.680602,9.944235,-5.323288,-0.559208,4.23589,-3.351323,-1.657253,6.52227,3.858898,0.617268,0.431892,-6.585111,-3.830845,0.605518, 
396,14.969755,10.447354,-1.547205,-0.680418,9.947779,-5.334553,-0.558995,4.235544,-3.353763,-1.654778,6.533968,3.868307,0.617576,0.429403,-6.596788,-3.840251,0.605209, 
397,14.977713,10.454663,-1.548398,-0.680232,9.951322,-5.345822,-0.558783,4.2352,-3.356194,-1.652318,6.545637,3.877744,0.617882,0.426929,-6.608434,-3.849683,0.604901, 
398,14.985662,10.461946,-1.549586,-0.680044,9.954861,-5.357087,-0.558571,4.234859,-3.358609,-1.649874,6.557275,3.887209,0.618186,0.424471,-6.62005,-3.859144,0.604595, 
399,14.993598,10.469204,-1.55077,-0.679854,9.958394,-5.36835,-0.558361,4.23452,-3.361012,-1.647446,6.568882,3.8967,0.61849,0.422029,-6.631635,-3.868632,0.604291, 
400,15.001509,10.476442,-1.551953,-0.679663,9.961923,-5.379604,-0.558151,4.234183,-3.363409,-1.645034,6.580463,3.906218,0.618791,0.419604,-6.643195,-3.878147,0.603987, 
401,15.009386,10.483667,-1.553131,-0.679469,9.965445,-5.39085,-0.557941,4.233848,-3.365797,-1.64264,6.592012,3.915762,0.619091,0.417197,-6.654723,-3.887686,0.603686, 
402,15.01723,10.490875,-1.554306,-0.679274,9.968963,-5.402091,-0.557731,4.233515,-3.368175,-1.640262,6.603531,3.925331,0.61939,0.414806,-6.66622,-3.897254,0.603386, 
403,15.025058,10.498054,-1.555477,-0.679077,9.972478,-5.413338,-0.557523,4.233184,-3.37054,-1.6379,6.615018,3.934928,0.619687,0.412431,-6.677691,-3.906847,0.603088, 
404,15.03288,10.505209,-1.556646,-0.678879,9.975986,-5.424574,-0.557316,4.232856,-3.372896,-1.635554,6.626472,3.94455,0.619982,0.410073,-6.689124,-3.916467,0.602791, 
405,15.040661,10.512348,-1.55781,-0.678679,9.979489,-5.435809,-0.557109,4.23253,-3.375242,-1.633224,6.637892,3.954198,0.620275,0.40773,-6.700532,-3.926114,0.602496, 
406,15.04842,10.519467,-1.558971,-0.678478,9.982998,-5.447042,-0.556904,4.232206,-3.377576,-1.630911,6.649282,3.963873,0.620568,0.405404,-6.711906,-3.935786,0.602203, 
407,15.056163,10.526561,-1.560128,-0.678276,9.986523,-5.458263,-0.5567,4.231884,-3.379901,-1.628615,6.66064,3.973573,0.620858,0.403096,-6.723246,-3.945484,0.601912, 
408,15.063881,10.533633,-1.561283,-0.678072,9.990043,-5.469485,-0.556496,4.231564,-3.382217,-1.626336,6.671965,3.983297,0.621147,0.400805,-6.734554,-3.955206,0.601622, 
409,15.071589,10.540693,-1.562434,-0.677867,9.993563,-5.4807,-0.556292,4.231246,-3.384528,-1.624073,6.683257,3.993046,0.621435,0.39853,-6.745828,-3.964955,0.601333, 
410,15.079254,10.547729,-1.56358,-0.67766,9.997076,-5.491908,-0.55609,4.230923,-3.386825,-1.621827,6.694512,4.00282,0.621721,0.396272,-6.757067,-3.974728,0.601046, 
411,15.086906,10.554752,-1.564724,-0.677452,10.000584,-5.503114,-0.555887,4.230602,-3.389109,-1.619597,6.705733,4.012619,0.622005,0.39403,-6.768274,-3.984527,0.600761, 
412,15.094541,10.561739,-1.565864,-0.677243,10.004086,-5.514304,-0.555685,4.230284,-3.391388,-1.617382,6.716922,4.022442,0.622288,0.391804,-6.779449,-3.99435,0.600478, 
413,15.102155,10.568707,-1.567003,-0.677032,10.007595,-5.525493,-0.555483,4.229965,-3.393657,-1.615185,6.728076,4.032292,0.622568,0.389596,-6.790588,-4.0042,0.600196, 
414,15.109736,10.57566,-1.568139,-0.67682,10.011099,-5.536669,-0.555283,4.22965,-3.395917,-1.613004,6.739192,4.042165,0.622847,0.387404,-6.801688,-4.014071,0.599915, 
415,15.117306,10.582596,-1.56927,-0.676609,10.014595,-5.547834,-0.555084,4.229336,-3.398164,-1.610841,6.750272,4.052059,0.623125,0.38523,-6.812756,-4.023969,0.599637, 
416,15.124836,10.589512,-1.570397,-0.676395,10.018084,-5.558988,-0.554885,4.229024,-3.400401,-1.608694,6.761317,4.061978,0.623401,0.383074,-6.823788,-4.033888,0.59936, 
417,15.132347,10.596416,-1.571523,-0.676181,10.021566,-5.570127,-0.554688,4.228714,-3.40263,-1.606566,6.772326,4.071921,0.623675,0.380934,-6.834786,-4.043832,0.599085, 
418,15.139845,10.603301,-1.572645,-0.675966,10.025041,-5.581254,-0.554491,4.228401,-3.404854,-1.604453,6.783298,4.081885,0.623948,0.378812,-6.845745,-4.053799,0.598811, 
419,15.147333,10.61015,-1.573763,-0.675749,10.02851,-5.592387,-0.554294,4.228089,-3.407068,-1.602356,6.794234,4.091878,0.624219,0.376704,-6.85667,-4.06379,0.598539, 
420,15.15479,10.616979,-1.574878,-0.675532,10.031971,-5.603508,-0.554097,4.227779,-3.409271,-1.600274,6.805131,4.101892,0.624488,0.374612,-6.867558,-4.073804,0.598268, 
421,15.162213,10.623798,-1.575991,-0.675313,10.035431,-5.61462,-0.553901,4.227466,-3.411464,-1.598207,6.815992,4.11193,0.624757,0.372536,-6.878407,-4.083843,0.598, 
422,15.169628,10.630598,-1.577102,-0.675094,10.038882,-5.625718,-0.553705,4.227155,-3.413647,-1.596157,6.826815,4.121988,0.625023,0.370477,-6.889219,-4.093905,0.597732, 
423,15.17703,10.637389,-1.578207,-0.674873,10.042341,-5.6368,-0.553512,4.226846,-3.415824,-1.594125,6.837601,4.13207,0.625287,0.368435,-6.899993,-4.103989,0.597467, 
424,15.184406,10.64416,-1.57931,-0.674652,10.045795,-5.647864,-0.553318,4.226539,-3.417992,-1.59211,6.848351,4.142171,0.62555,0.366411,-6.910732,-4.114096,0.597203, 
425,15.191759,10.650893,-1.58041,-0.674431,10.04925,-5.658919,-0.553126,4.226234,-3.420151,-1.590112,6.859061,4.152295,0.625812,0.364404,-6.921433,-4.124223,0.596941, 
426,15.199076,10.657616,-1.58151,-0.674209,10.05271,-5.669963,-0.552934,4.225932,-3.422298,-1.588131,6.869729,4.162439,0.626072,0.362415,-6.932096,-4.134376,0.596681, 
427,15.206369,10.664323,-1.582603,-0.673985,10.056163,-5.680993,-0.552742,4.225631,-3.424439,-1.586167,6.880364,4.172606,0.62633,0.360442,-6.942721,-4.144549,0.596422, 
428,15.213657,10.671006,-1.583693,-0.673761,10.059608,-5.692008,-0.55255,4.225332,-3.426571,-1.58422,6.890959,4.182793,0.626586,0.358487,-6.953307,-4.154744,0.596165, 
429,15.220924,10.67768,-1.584781,-0.673537,10.063046,-5.703004,-0.552359,4.225035,-3.428697,-1.582288,6.901518,4.193002,0.62684,0.356548,-6.963852,-4.164959,0.595909, 
430,15.22818,10.684341,-1.585866,-0.673313,10.066474,-5.713989,-0.552168,4.224741,-3.430813,-1.580374,6.912036,4.203231,0.627093,0.354626,-6.974361,-4.175195,0.595656, 
431,15.235415,10.690968,-1.586948,-0.673089,10.069898,-5.724963,-0.551979,4.224448,-3.432918,-1.578476,6.922512,4.213482,0.627344,0.35272,-6.984831,-4.185452,0.595403, 
432,15.242617,10.697573,-1.588026,-0.672863,10.073316,-5.735921,-0.551791,4.224157,-3.435016,-1.576594,6.932953,4.223756,0.627594,0.35083,-6.995263,-4.19573,0.595152, 
433,15.2498,10.704169,-1.589103,-0.672637,10.076735,-5.746863,-0.551604,4.223868,-3.437107,-1.574727,6.943351,4.234046,0.627842,0.348956,-7.005653,-4.206028,0.594903, 
434,15.256968,10.710747,-1.590177,-0.67241,10.080146,-5.757799,-0.551416,4.223577,-3.439192,-1.572876,6.953712,4.244357,0.628089,0.347098,-7.016007,-4.216346,0.594656, 
435,15.264128,10.71732,-1.591246,-0.672183,10.083549,-5.768716,-0.55123,4.223288,-3.441269,-1.571039,6.964033,4.254689,0.628334,0.345255,-7.026322,-4.226683,0.59441, 
436,15.271259,10.723876,-1.592313,-0.671956,10.086957,-5.779619,-0.551044,4.223,-3.443337,-1.569219,6.974313,4.265041,0.628577,0.343428,-7.036594,-4.237044,0.594165, 
437,15.278366,10.730392,-1.593378,-0.671729,10.090353,-5.79051,-0.550859,4.222713,-3.445394,-1.567416,6.984554,4.275412,0.628819,0.341617,-7.046828,-4.247421,0.593922, 
438,15.285451,10.736895,-1.594442,-0.671499,10.093743,-5.801385,-0.550675,4.222429,-3.447441,-1.565627,6.994755,4.285805,0.629059,0.339822,-7.057021,-4.25782,0.593681, 
439,15.292526,10.743383,-1.595502,-0.67127,10.097127,-5.812236,-0.55049,4.222146,-3.449481,-1.563855,7.004917,4.296216,0.629298,0.338044,-7.067176,-4.268241,0.593441, 
440,15.29958,10.749865,-1.596557,-0.671041,10.100501,-5.823065,-0.550308,4.221865,-3.451514,-1.5621,7.015037,4.306647,0.629535,0.336283,-7.077293,-4.278678,0.593203, 
441,15.30661,10.75633,-1.597611,-0.670811,10.103871,-5.833876,-0.550126,4.221584,-3.453542,-1.560362,7.025119,4.317099,0.629771,0.334538,-7.087368,-4.289134,0.592967, 
442,15.313611,10.762782,-1.598662,-0.670582,10.107232,-5.844668,-0.549944,4.221304,-3.455559,-1.558639,7.035162,4.327567,0.630005,0.332809,-7.097404,-4.299609,0.592733, 
443,15.320607,10.769199,-1.59971,-0.670351,10.110585,-5.855445,-0.549762,4.221027,-3.457568,-1.556932,7.045162,4.338052,0.630237,0.331096,-7.107399,-4.310101,0.5925, 
444,15.327588,10.775598,-1.600754,-0.670121,10.113931,-5.86621,-0.549581,4.220752,-3.459568,-1.55524,7.055122,4.348555,0.630468,0.329398,-7.117354,-4.320612,0.592269, 
445,15.334559,10.781986,-1.601797,-0.66989,10.117271,-5.876955,-0.549401,4.220479,-3.46156,-1.553563,7.065046,4.359076,0.630697,0.327715,-7.127268,-4.331141,0.592039, 
446,15.341512,10.788358,-1.602838,-0.66966,10.120605,-5.887678,-0.549221,4.220206,-3.463547,-1.551902,7.074925,4.369617,0.630925,0.326048,-7.137141,-4.341693,0.59181, 
447,15.348416,10.794728,-1.603876,-0.66943,10.123937,-5.898379,-0.549041,4.219936,-3.465527,-1.550257,7.084764,4.380175,0.631151,0.324398,-7.146975,-4.352257,0.591583, 
448,15.355309,10.801085,-1.604909,-0.669199,10.127275,-5.90906,-0.548862,4.219661,-3.4675,-1.548627,7.09456,4.390748,0.631376,0.322763,-7.156769,-4.362841,0.591358, 
449,15.362201,10.807405,-1.60594,-0.668969,10.130605,-5.919723,-0.548685,4.219388,-3.469465,-1.547013,7.104316,4.40134,0.631599,0.321144,-7.166522,-4.37344,0.591134, 
450,15.369081,10.813711,-1.606969,-0.668737,10.133924,-5.930358,-0.548508,4.219113,-3.471421,-1.545415,7.114033,4.411947,0.63182,0.319541,-7.176234,-4.384057,0.590912, 
451,15.375925,10.820004,-1.607996,-0.668507,10.137236,-5.940973,-0.548331,4.218839,-3.473372,-1.543832,7.123712,4.42257,0.632041,0.317953,-7.185907,-4.39469,0.590692, 
452,15.382746,10.826283,-1.609021,-0.668278,10.140539,-5.951568,-0.548155,4.218564,-3.475316,-1.542264,7.133349,4.433211,0.632259,0.31638,-7.195539,-4.405338,0.590473, 
453,15.389552,10.832548,-1.610042,-0.668046,10.143835,-5.962142,-0.54798,4.218288,-3.47725,-1.540712,7.142942,4.44387,0.632475,0.314823,-7.20513,-4.416008,0.590255, 
454,15.396348,10.838803,-1.61106,-0.667815,10.147122,-5.972698,-0.547804,4.218012,-3.479178,-1.539173,7.152501,4.454544,0.632691,0.313281,-7.214682,-4.426689,0.590039, 
455,15.40313,10.845022,-1.612076,-0.667585,10.150402,-5.98323,-0.547629,4.217737,-3.481097,-1.53765,7.162015,4.465236,0.632904,0.311752,-7.224193,-4.437388,0.589825, 
456,15.409892,10.851222,-1.613091,-0.667356,10.153674,-5.993734,-0.547454,4.217463,-3.483011,-1.536142,7.17149,4.475939,0.633117,0.31024,-7.233663,-4.448102,0.589612, 
457,15.416623,10.857402,-1.614101,-0.667125,10.156952,-6.004216,-0.54728,4.21719,-3.484918,-1.534648,7.180923,4.486661,0.633328,0.308743,-7.243096,-4.458832,0.589401, 
458,15.42334,10.863582,-1.61511,-0.666895,10.160221,-6.014673,-0.547107,4.216917,-3.486818,-1.533172,7.190321,4.497398,0.633537,0.307262,-7.252489,-4.469578,0.58919, 
459,15.430039,10.869758,-1.616116,-0.666664,10.163483,-6.025115,-0.546935,4.216646,-3.488709,-1.531709,7.199672,4.50815,0.633744,0.305795,-7.261839,-4.480339,0.588982, 
460,15.436736,10.875922,-1.617119,-0.666433,10.166734,-6.03553,-0.546764,4.216377,-3.490593,-1.53026,7.208986,4.518914,0.633951,0.304343,-7.271152,-4.491116,0.588775, 
461,15.443415,10.882059,-1.61812,-0.666203,10.169975,-6.04592,-0.546594,4.21611,-3.492467,-1.528826,7.218261,4.529695,0.634155,0.302907,-7.280425,-4.501908,0.58857, 
462,15.450075,10.888168,-1.61912,-0.665973,10.173207,-6.056291,-0.546423,4.215843,-3.494337,-1.527407,7.227492,4.540493,0.634359,0.301484,-7.289653,-4.512716,0.588366, 
463,15.456717,10.894271,-1.620118,-0.665743,10.176431,-6.066643,-0.546254,4.215578,-3.496202,-1.526001,7.236685,4.551304,0.634561,0.300075,-7.298844,-4.523538,0.588163, 
464,15.463341,10.900364,-1.621111,-0.665514,10.179644,-6.076973,-0.546085,4.215314,-3.498059,-1.524608,7.24584,4.562127,0.634761,0.298679,-7.307996,-4.534373,0.587962, 
465,15.469942,10.906443,-1.6221,-0.665284,10.182849,-6.087281,-0.545915,4.215054,-3.499907,-1.52323,7.254958,4.572966,0.634961,0.297297,-7.317108,-4.545226,0.587762, 
466,15.476517,10.91251,-1.623088,-0.665055,10.186049,-6.097559,-0.545746,4.214795,-3.501752,-1.521865,7.264035,4.58382,0.635159,0.295929,-7.32618,-4.556091,0.587564, 
467,15.483088,10.918548,-1.624075,-0.664827,10.189239,-6.10781,-0.545578,4.214536,-3.503589,-1.520515,7.273072,4.594686,0.635355,0.294576,-7.335214,-4.56697,0.587367, 
468,15.489642,10.924579,-1.62506,-0.6646,10.192419,-6.118035,-0.545411,4.214277,-3.505418,-1.51918,7.282068,4.605567,0.63555,0.293238,-7.344206,-4.577862,0.587172, 
469,15.496194,10.930586,-1.626044,-0.664371,10.195595,-6.128246,-0.545244,4.21402,-3.507239,-1.517858,7.291024,4.61646,0.635744,0.291913,-7.353163,-4.588766,0.586978, 
470,15.502721,10.936581,-1.62702,-0.664143,10.198763,-6.138429,-0.545078,4.213764,-3.509054,-1.516549,7.299941,4.627366,0.635936,0.290601,-7.362075,-4.599683,0.586786, 
471,15.509214,10.942568,-1.627994,-0.663916,10.20192,-6.148583,-0.544912,4.21351,-3.51086,-1.515255,7.30882,4.638286,0.636127,0.289304,-7.370949,-4.610616,0.586594, 
472,15.515696,10.948544,-1.628968,-0.663689,10.205068,-6.158711,-0.544748,4.213258,-3.51266,-1.513974,7.317658,4.649218,0.636316,0.288021,-7.379786,-4.621561,0.586405, 
473,15.522171,10.954498,-1.62994,-0.663463,10.208215,-6.168814,-0.544583,4.213007,-3.514457,-1.512707,7.326456,4.660163,0.636504,0.286751,-7.388583,-4.632519,0.586216, 
474,15.528634,10.960442,-1.630911,-0.663237,10.211356,-6.178891,-0.544419,4.212757,-3.516248,-1.511453,7.335218,4.671118,0.63669,0.285495,-7.397341,-4.643487,0.586029, 
475,15.535082,10.966374,-1.631877,-0.663011,10.214488,-6.188941,-0.544255,4.212509,-3.518032,-1.510212,7.343939,4.682086,0.636876,0.284253,-7.406062,-4.654471,0.585844, 
476,15.541516,10.972296,-1.63284,-0.662785,10.217609,-6.19896,-0.544092,4.212262,-3.519809,-1.508986,7.352622,4.693069,0.637059,0.283024,-7.414745,-4.665466,0.58566, 
477,15.547931,10.978191,-1.633801,-0.662559,10.220721,-6.20895,-0.543929,4.212017,-3.52158,-1.507773,7.361266,4.704062,0.637242,0.281808,-7.423384,-4.676469,0.585477, 
478,15.55432,10.984081,-1.634761,-0.662334,10.223823,-6.21891,-0.543768,4.211773,-3.523345,-1.506572,7.369871,4.715069,0.637423,0.280607,-7.431988,-4.687488,0.585295, 
479,15.560699,10.989952,-1.635719,-0.662111,10.226913,-6.228844,-0.543607,4.211531,-3.525103,-1.505386,7.378439,4.726089,0.637602,0.279418,-7.440555,-4.698516,0.585115, 
480,15.56706,10.995787,-1.636676,-0.661887,10.229997,-6.23875,-0.543446,4.21129,-3.526854,-1.504212,7.38697,4.737118,0.63778,0.278243,-7.449081,-4.709556,0.584937, 
481,15.573404,11.001616,-1.637631,-0.661663,10.233077,-6.24863,-0.543285,4.21105,-3.528598,-1.503052,7.39546,4.748159,0.637957,0.277081,-7.457569,-4.720612,0.584759, 
482,15.579744,11.007445,-1.63858,-0.66144,10.236148,-6.258489,-0.543125,4.210812,-3.530337,-1.501904,7.403914,4.759212,0.638133,0.275932,-7.46602,-4.731677,0.584582, 
483,15.586071,11.013258,-1.639527,-0.661219,10.239209,-6.268316,-0.542965,4.210575,-3.532069,-1.500769,7.412331,4.770275,0.638307,0.274795,-7.474435,-4.742751,0.584408, 
484,15.592381,11.01907,-1.640473,-0.660996,10.242258,-6.278116,-0.542805,4.21034,-3.533795,-1.499646,7.420712,4.78135,0.63848,0.273671,-7.482809,-4.753835,0.584234, 
485,15.598663,11.024874,-1.641418,-0.660775,10.245299,-6.287885,-0.542646,4.210105,-3.535516,-1.498535,7.429052,4.792434,0.638652,0.27256,-7.491149,-4.764931,0.584062, 
486,15.604928,11.030643,-1.64236,-0.660554,10.24834,-6.297623,-0.542487,4.209871,-3.537229,-1.497438,7.437357,4.803531,0.638823,0.271461,-7.499451,-4.776036,0.583891, 
487,15.611176,11.036393,-1.6433,-0.660335,10.251369,-6.307333,-0.542329,4.209641,-3.538936,-1.496353,7.445622,4.814637,0.638992,0.270375,-7.507716,-4.787151,0.583721, 
488,15.617407,11.04213,-1.644238,-0.660115,10.25439,-6.317017,-0.542173,4.209411,-3.540642,-1.495281,7.453854,4.82575,0.63916,0.269301,-7.515944,-4.798278,0.583553, 
489,15.623631,11.04786,-1.645172,-0.659897,10.257399,-6.326678,-0.542016,4.209182,-3.542342,-1.494219,7.462047,4.836877,0.639326,0.268238,-7.524135,-4.809415,0.583386, 
490,15.629855,11.053583,-1.646105,-0.659679,10.260398,-6.336309,-0.54186,4.208955,-3.544034,-1.493169,7.470202,4.848014,0.639492,0.267187,-7.53229,-4.820561,0.58322, 
491,15.636064,11.059296,-1.647037,-0.659461,10.26339,-6.345914,-0.541705,4.208728,-3.545718,-1.492131,7.478324,4.859159,0.639657,0.266148,-7.540407,-4.831718,0.583055, 
492,15.642252,11.065004,-1.647964,-0.659243,10.266371,-6.355487,-0.54155,4.208498,-3.547398,-1.491105,7.48641,4.870309,0.639819,0.265121,-7.54849,-4.842884,0.582892, 
493,15.648422,11.070695,-1.648892,-0.659026,10.269341,-6.365036,-0.541395,4.20827,-3.549069,-1.49009,7.49446,4.881471,0.639981,0.264105,-7.556536,-4.854058,0.58273, 
494,15.654575,11.076353,-1.649815,-0.65881,10.272303,-6.374559,-0.541241,4.208041,-3.550734,-1.489086,7.502469,4.892641,0.640142,0.263101,-7.564543,-4.86524,0.582569, 
495,15.66072,11.081996,-1.650737,-0.658594,10.27525,-6.384052,-0.541088,4.207815,-3.552394,-1.488094,7.510446,4.903824,0.640302,0.262108,-7.572514,-4.876435,0.582409, 
496,15.666846,11.087626,-1.651658,-0.658378,10.278191,-6.393519,-0.540934,4.20759,-3.554054,-1.487111,7.518387,4.915015,0.64046,0.261125,-7.580453,-4.887635,0.58225, 
497,15.672971,11.093257,-1.652577,-0.658164,10.281119,-6.402955,-0.54078,4.207366,-3.555707,-1.486141,7.526289,4.926217,0.640617,0.260154,-7.588355,-4.898848,0.582093, 
498,15.67907,11.098882,-1.653492,-0.65795,10.284039,-6.412361,-0.540627,4.207144,-3.557352,-1.485181,7.53416,4.937424,0.640773,0.259193,-7.596221,-4.910069,0.581937, 
499,15.685145,11.104493,-1.654407,-0.657738,10.286947,-6.421736,-0.540476,4.206923,-3.558993,-1.484232,7.541994,4.948642,0.640928,0.258245,-7.604056,-4.921298,0.581781, 
500,15.691205,11.110082,-1.65532,-0.657525,10.289846,-6.431085,-0.540324,4.206704,-3.560627,-1.483295,7.549797,4.959867,0.641082,0.257307,-7.611857,-4.932534,0.581627, 
501,15.697249,11.115644,-1.656228,-0.657312,10.292735,-6.440402,-0.540174,4.206485,-3.562253,-1.48237,7.557563,4.971102,0.641235,0.256381,-7.619623,-4.943779,0.581474, 
502,15.703288,11.121204,-1.657136,-0.6571,10.295626,-6.449684,-0.540024,4.206268,-3.563871,-1.481456,7.565294,4.982341,0.641386,0.255467,-7.627351,-4.955034,0.581323, 
503,15.709317,11.126755,-1.658041,-0.656889,10.29851,-6.458937,-0.539874,4.206051,-3.565485,-1.480553,7.572987,4.993589,0.641536,0.254564,-7.635044,-4.966297,0.581172, 
504,15.715341,11.132293,-1.658943,-0.65668,10.301386,-6.468157,-0.539724,4.205832,-3.567097,-1.479661,7.580648,5.004844,0.641685,0.253672,-7.642703,-4.977566,0.581023, 
505,15.721358,11.137814,-1.659843,-0.656471,10.30425,-6.477346,-0.539574,4.205613,-3.568703,-1.478779,7.588274,5.016109,0.641833,0.252791,-7.650328,-4.988842,0.580875, 
506,15.727323,11.143327,-1.660742,-0.656263,10.30711,-6.486505,-0.539424,4.205395,-3.570306,-1.477908,7.595867,5.02738,0.641981,0.251919,-7.65792,-5.000126,0.580728, 
507,15.733282,11.148823,-1.66164,-0.656055,10.309958,-6.495639,-0.539276,4.205177,-3.571904,-1.477047,7.603426,5.038661,0.642127,0.251058,-7.665479,-5.011418,0.580582, 
508,15.739236,11.154302,-1.662536,-0.655848,10.312795,-6.504744,-0.539128,4.204961,-3.573495,-1.476196,7.610955,5.049946,0.642271,0.250207,-7.673006,-5.022718,0.580437, 
509,15.745175,11.159773,-1.663429,-0.655643,10.31562,-6.513816,-0.53898,4.204746,-3.575078,-1.475355,7.618451,5.061239,0.642415,0.249367,-7.680499,-5.034027,0.580294, 
510,15.751107,11.165243,-1.664319,-0.655438,10.318439,-6.522855,-0.538834,4.204533,-3.576655,-1.474525,7.625909,5.072534,0.642558,0.248537,-7.687958,-5.045339,0.580151, 
511,15.757034,11.170708,-1.665207,-0.655232,10.321245,-6.531862,-0.538688,4.20432,-3.578227,-1.473705,7.63334,5.083839,0.642699,0.247718,-7.695385,-5.056659,0.580009, 
512,15.762953,11.17616,-1.666093,-0.655028,10.324041,-6.540837,-0.538541,4.204107,-3.579795,-1.472896,7.640736,5.095149,0.64284,0.246909,-7.702784,-5.067985,0.579869, 
513,15.768848,11.181603,-1.666978,-0.654824,10.326829,-6.549782,-0.538396,4.203897,-3.581359,-1.472095,7.648099,5.106468,0.642979,0.246109,-7.710144,-5.079319,0.579729, 
514,15.774718,11.187021,-1.667862,-0.654621,10.329606,-6.558698,-0.53825,4.203684,-3.582919,-1.471305,7.655431,5.117792,0.643118,0.24532,-7.717472,-5.090658,0.579591, 
515,15.780582,11.192409,-1.668743,-0.654418,10.332375,-6.567584,-0.538106,4.203472,-3.584475,-1.470525,7.662727,5.129123,0.643255,0.244539,-7.724768,-5.102002,0.579453, 
516,15.786433,11.19778,-1.669623,-0.654215,10.335134,-6.576436,-0.537961,4.203262,-3.586025,-1.469753,7.669994,5.140457,0.643392,0.243768,-7.732034,-5.113352,0.579317, 
517,15.792263,11.203147,-1.670499,-0.654014,10.337879,-6.585257,-0.537817,4.203052,-3.587571,-1.468991,7.677229,5.151799,0.643527,0.243007,-7.73927,-5.124707,0.579182, 
518,15.798077,11.208513,-1.671375,-0.653814,10.340616,-6.59405,-0.537672,4.202844,-3.58911,-1.468238,7.684435,5.163146,0.643662,0.242255,-7.746472,-5.136069,0.579048, 
519,15.803874,11.21388,-1.672248,-0.653614,10.343342,-6.602816,-0.537528,4.202637,-3.590645,-1.467495,7.691609,5.174497,0.643795,0.241512,-7.753643,-5.147434,0.578914, 
520,15.80966,11.219244,-1.673121,-0.653415,10.346058,-6.611556,-0.537384,4.202431,-3.592175,-1.466759,7.698752,5.185853,0.643928,0.240778,-7.760783,-5.158804,0.578781, 
521,15.815444,11.224595,-1.673991,-0.653217,10.348763,-6.620268,-0.537241,4.202226,-3.593699,-1.466033,7.70586,5.197217,0.644059,0.240052,-7.767889,-5.170177,0.57865, 
522,15.821208,11.229934,-1.674859,-0.653019,10.351459,-6.628948,-0.537099,4.202023,-3.595215,-1.465317,7.71294,5.208588,0.64419,0.239336,-7.774966,-5.181559,0.578519, 
523,15.826965,11.235237,-1.675725,-0.652823,10.354144,-6.637599,-0.536958,4.201821,-3.596729,-1.464609,7.71999,5.219962,0.64432,0.238628,-7.782015,-5.192947,0.578389, 
524,15.832721,11.240515,-1.676588,-0.652627,10.356818,-6.646218,-0.536817,4.201621,-3.598237,-1.46391,7.727009,5.231341,0.644448,0.23793,-7.789033,-5.204343,0.578261, 
525,15.838475,11.245782,-1.67745,-0.652431,10.359483,-6.654808,-0.536677,4.201421,-3.59974,-1.463219,7.733997,5.242723,0.644576,0.237241,-7.79602,-5.21574,0.578133, 
526,15.844193,11.251049,-1.678312,-0.652237,10.362139,-6.663365,-0.536536,4.201224,-3.601237,-1.462538,7.740957,5.254111,0.644703,0.236561,-7.802978,-5.227142,0.578006, 
527,15.849893,11.256314,-1.679172,-0.652043,10.364784,-6.671894,-0.536396,4.201028,-3.602731,-1.461865,7.747886,5.265504,0.644829,0.23589,-7.809907,-5.238552,0.57788, 
528,15.855586,11.261574,-1.680029,-0.651851,10.367435,-6.680395,-0.536257,4.200832,-3.604219,-1.461201,7.754784,5.276901,0.644954,0.235227,-7.816804,-5.249964,0.577755, 
529,15.861267,11.266826,-1.680884,-0.651659,10.370075,-6.688867,-0.536119,4.200637,-3.605704,-1.460545,7.761654,5.288304,0.645078,0.234572,-7.823672,-5.26138,0.57763, 
530,15.866926,11.272075,-1.681736,-0.651468,10.372705,-6.697307,-0.53598,4.200444,-3.607184,-1.459897,7.768494,5.299711,0.645201,0.233926,-7.830511,-5.2728,0.577507, 
531,15.872574,11.2773,-1.682585,-0.651277,10.375326,-6.705714,-0.535842,4.200252,-3.608659,-1.459258,7.775307,5.311122,0.645323,0.233288,-7.837322,-5.284225,0.577385, 
532,15.878219,11.282511,-1.683434,-0.651087,10.377935,-6.714089,-0.535704,4.200061,-3.61013,-1.458628,7.782087,5.32254,0.645445,0.232659,-7.844102,-5.295658,0.577264, 
533,15.883855,11.287693,-1.684282,-0.650897,10.380536,-6.722434,-0.535566,4.199868,-3.611599,-1.458005,7.788841,5.333959,0.645565,0.232038,-7.850854,-5.307093,0.577143, 
534,15.889482,11.292872,-1.685128,-0.650708,10.383125,-6.73075,-0.535429,4.199675,-3.613061,-1.45739,7.79557,5.345382,0.645685,0.231425,-7.857578,-5.318532,0.577024, 
535,15.895085,11.298046,-1.685973,-0.650519,10.385707,-6.739034,-0.535292,4.199483,-3.614517,-1.456784,7.802266,5.356808,0.645804,0.23082,-7.864274,-5.329974,0.576905, 
536,15.900681,11.303209,-1.686817,-0.650332,10.388277,-6.747288,-0.535156,4.199292,-3.615968,-1.456186,7.808933,5.368239,0.645922,0.230223,-7.870938,-5.341418,0.576787, 
537,15.906264,11.308362,-1.687658,-0.650145,10.39084,-6.75551,-0.535021,4.199102,-3.617414,-1.455596,7.815573,5.379674,0.646039,0.229634,-7.877575,-5.352868,0.57667, 
538,15.91184,11.313513,-1.688495,-0.649959,10.393391,-6.7637,-0.534886,4.19891,-3.618856,-1.455012,7.822185,5.391112,0.646155,0.229053,-7.884184,-5.364323,0.576554, 
539,15.917404,11.318655,-1.689331,-0.649774,10.395928,-6.771865,-0.534751,4.198715,-3.620295,-1.454438,7.82877,5.402552,0.646271,0.22848,-7.890767,-5.375779,0.576438, 
540,15.922947,11.323787,-1.690166,-0.649589,10.39846,-6.779997,-0.534616,4.198519,-3.621727,-1.45387,7.83533,5.413996,0.646386,0.227914,-7.897322,-5.387238,0.576324, 
541,15.92849,11.328904,-1.690999,-0.649406,10.40098,-6.788097,-0.534481,4.198324,-3.623157,-1.45331,7.841863,5.425443,0.646499,0.227355,-7.903851,-5.398699,0.57621, 
542,15.934017,11.333995,-1.691832,-0.649223,10.40349,-6.796165,-0.534346,4.198129,-3.624581,-1.452757,7.848369,5.436894,0.646612,0.226804,-7.910356,-5.410165,0.576097, 
543,15.939522,11.339065,-1.692663,-0.649042,10.405992,-6.804201,-0.534212,4.197936,-3.626001,-1.452212,7.854848,5.448349,0.646724,0.22626,-7.916833,-5.421633,0.575984, 
544,15.945026,11.344134,-1.693492,-0.648861,10.408483,-6.812205,-0.534078,4.197745,-3.627417,-1.451674,7.8613,5.459807,0.646836,0.225725,-7.923283,-5.433103,0.575873, 
545,15.950518,11.349202,-1.694318,-0.64868,10.410965,-6.820179,-0.533944,4.197554,-3.628829,-1.451144,7.867725,5.471263,0.646946,0.225196,-7.929705,-5.444577,0.575763, 
546,15.956,11.354262,-1.695142,-0.648501,10.413439,-6.828122,-0.53381,4.197364,-3.630236,-1.450621,7.874125,5.482726,0.647056,0.224675,-7.936103,-5.456054,0.575653, 
547,15.961476,11.359308,-1.695964,-0.648322,10.4159,-6.836039,-0.533676,4.197174,-3.63164,-1.450104,7.880497,5.494191,0.647165,0.224161,-7.942474,-5.467533,0.575544, 
548,15.966923,11.36434,-1.696783,-0.648144,10.418353,-6.843924,-0.533543,4.196986,-3.633039,-1.449595,7.886842,5.505661,0.647273,0.223654,-7.948818,-5.479016,0.575436, 
549,15.972362,11.369369,-1.697603,-0.647966,10.420795,-6.85178,-0.533411,4.1968,-3.634436,-1.449093,7.893159,5.517131,0.64738,0.223153,-7.955138,-5.490499,0.575329, 
550,15.977794,11.374381,-1.69842,-0.64779,10.423228,-6.859608,-0.53328,4.196614,-3.635828,-1.448597,7.899452,5.528603,0.647487,0.222659,-7.961434,-5.501985,0.575222, 
551,15.983215,11.379391,-1.699238,-0.647613,10.425653,-6.867406,-0.53315,4.196431,-3.637217,-1.448107,7.905718,5.540076,0.647592,0.222171,-7.967702,-5.513475,0.575116, 
552,15.98863,11.384385,-1.700054,-0.647437,10.428066,-6.875173,-0.53302,4.196248,-3.6386,-1.447625,7.911961,5.551551,0.647698,0.221691,-7.973945,-5.524964,0.575011, 
553,15.994045,11.389366,-1.700866,-0.647262,10.43047,-6.882914,-0.532891,4.196059,-3.639979,-1.447149,7.918178,5.563029,0.647802,0.221217,-7.98016,-5.536455,0.574906, 
554,15.999454,11.394325,-1.701678,-0.647087,10.432866,-6.890629,-0.532761,4.195872,-3.641354,-1.446678,7.924368,5.57451,0.647906,0.220749,-7.986351,-5.54795,0.574803, 
555,16.004843,11.399283,-1.702486,-0.646913,10.435252,-6.898313,-0.532632,4.195686,-3.642725,-1.446214,7.930535,5.58599,0.648009,0.220287,-7.992516,-5.559447,0.5747, 
556,16.010233,11.404238,-1.703293,-0.646739,10.437629,-6.905967,-0.532503,4.1955,-3.644091,-1.445757,7.936677,5.597473,0.648111,0.219832,-7.998658,-5.570944,0.574597, 
557,16.015612,11.40918,-1.704099,-0.646567,10.439995,-6.91359,-0.532374,4.195315,-3.645452,-1.445306,7.942795,5.60896,0.648213,0.219384,-8.004773,-5.582441,0.574496, 
558,16.02099,11.414117,-1.704904,-0.646394,10.442353,-6.921183,-0.532246,4.195132,-3.646808,-1.444862,7.948887,5.62045,0.648314,0.218942,-8.01087,-5.593942,0.574395, 
559,16.026346,11.419038,-1.705709,-0.646223,10.444702,-6.928746,-0.532118,4.194949,-3.64816,-1.444425,7.954957,5.631936,0.648414,0.218507,-8.016937,-5.605445,0.574294, 
560,16.031677,11.423949,-1.706512,-0.646053,10.447047,-6.93628,-0.53199,4.194767,-3.64951,-1.443993,7.961005,5.643424,0.648513,0.218078,-8.022976,-5.616948,0.574195, 
561,16.036991,11.428859,-1.707312,-0.645884,10.449384,-6.943783,-0.531862,4.194585,-3.650856,-1.443568,7.967031,5.654913,0.648612,0.217655,-8.028985,-5.62845,0.574096, 
562,16.042276,11.433755,-1.708111,-0.645715,10.451711,-6.951256,-0.531735,4.194406,-3.652198,-1.443149,7.973033,5.666405,0.64871,0.217238,-8.034976,-5.639958,0.573998, 
563,16.047543,11.438638,-1.708907,-0.645548,10.454026,-6.958712,-0.531607,4.194226,-3.653534,-1.442736,7.979012,5.677899,0.648807,0.216828,-8.040944,-5.651468,0.573901, 
564,16.052801,11.443501,-1.7097,-0.645382,10.456331,-6.966136,-0.53148,4.194047,-3.654867,-1.442328,7.984966,5.689393,0.648904,0.216422,-8.04689,-5.662977,0.573804, 
565,16.058058,11.44835,-1.710493,-0.645216,10.458631,-6.973531,-0.531354,4.193869,-3.656196,-1.441927,7.990898,5.700886,0.649001,0.216023,-8.052818,-5.674486,0.573708, 
566,16.063311,11.453192,-1.711285,-0.645052,10.460919,-6.980897,-0.531227,4.19369,-3.657522,-1.441531,7.996801,5.712383,0.649096,0.215629,-8.058722,-5.685995,0.573612, 
567,16.068558,11.458026,-1.712076,-0.644889,10.463201,-6.988235,-0.531102,4.193511,-3.658844,-1.441141,8.002686,5.723878,0.649191,0.215241,-8.064602,-5.697505,0.573518, 
568,16.073797,11.462859,-1.712867,-0.644725,10.465473,-6.995543,-0.530976,4.193334,-3.660164,-1.440757,8.008544,5.735378,0.649285,0.214859,-8.070459,-5.709017,0.573423, 
569,16.079037,11.467681,-1.713653,-0.644562,10.467734,-7.00282,-0.530852,4.193158,-3.661478,-1.440378,8.014384,5.746878,0.649379,0.214482,-8.0763,-5.720529,0.57333, 
570,16.084257,11.472501,-1.714437,-0.644399,10.469988,-7.01007,-0.530728,4.192982,-3.66279,-1.440004,8.020206,5.758376,0.649472,0.214111,-8.082119,-5.732042,0.573237, 
571,16.089472,11.477318,-1.71522,-0.644236,10.472231,-7.017289,-0.530604,4.192807,-3.664095,-1.439636,8.026001,5.769875,0.649564,0.213746,-8.087913,-5.743556,0.573145, 
572,16.094658,11.482121,-1.716002,-0.644074,10.474466,-7.024478,-0.530481,4.192633,-3.665397,-1.439275,8.031778,5.781374,0.649656,0.213387,-8.093688,-5.75507,0.573054, 
573,16.099842,11.486907,-1.716782,-0.643914,10.476691,-7.031639,-0.530357,4.19246,-3.666693,-1.438919,8.037534,5.792871,0.649747,0.213034,-8.099439,-5.766585,0.572962, 
574,16.105026,11.49169,-1.717561,-0.643753,10.478908,-7.038772,-0.530234,4.192289,-3.667987,-1.438568,8.043265,5.804375,0.649837,0.212686,-8.105165,-5.778098,0.572872, 
575,16.110191,11.49647,-1.71834,-0.643594,10.481112,-7.045874,-0.530111,4.192118,-3.669277,-1.438224,8.048975,5.815874,0.649927,0.212343,-8.110872,-5.789612,0.572783, 
576,16.115332,11.501215,-1.719119,-0.643435,10.483312,-7.052949,-0.529989,4.191948,-3.670564,-1.437884,8.054662,5.827374,0.650017,0.212006,-8.116558,-5.801126,0.572694, 
577,16.120466,11.505954,-1.719894,-0.643278,10.485499,-7.059994,-0.529866,4.191778,-3.671846,-1.43755,8.060329,5.838874,0.650105,0.211674,-8.122221,-5.812642,0.572605, 
578,16.125584,11.510686,-1.720668,-0.64312,10.487679,-7.067014,-0.529744,4.191608,-3.673126,-1.437219,8.065977,5.850376,0.650193,0.211347,-8.127864,-5.824157,0.572517, 
579,16.130701,11.515406,-1.72144,-0.642964,10.489848,-7.074006,-0.529622,4.19144,-3.674407,-1.436894,8.071597,5.861876,0.65028,0.211024,-8.133487,-5.835669,0.57243, 
580,16.135817,11.520124,-1.722211,-0.642808,10.492011,-7.080969,-0.5295,4.191272,-3.675683,-1.436573,8.077197,5.873376,0.650367,0.210706,-8.139085,-5.847182,0.572343, 
581,16.140896,11.524843,-1.72298,-0.642653,10.494164,-7.087907,-0.529378,4.191105,-3.676955,-1.436258,8.08278,5.884876,0.650453,0.210393,-8.144663,-5.858696,0.572257, 
582,16.145958,11.529552,-1.723747,-0.642499,10.496307,-7.094818,-0.529257,4.190939,-3.678224,-1.435947,8.088342,5.896375,0.650539,0.210085,-8.150216,-5.870211,0.572171, 
583,16.15102,11.534255,-1.724512,-0.642345,10.498443,-7.101699,-0.529136,4.190774,-3.679487,-1.435642,8.093882,5.907873,0.650624,0.209782,-8.155756,-5.881723,0.572086, 
584,16.156075,11.538942,-1.725277,-0.642192,10.50057,-7.108552,-0.529016,4.190611,-3.680746,-1.435341,8.099404,5.91937,0.650709,0.209484,-8.161275,-5.893237,0.572002, 
585,16.161112,11.543619,-1.72604,-0.64204,10.502687,-7.115378,-0.528896,4.190448,-3.681999,-1.435046,8.104902,5.93087,0.650793,0.209192,-8.16677,-5.904748,0.571918, 
586,16.166145,11.548294,-1.726801,-0.641888,10.504798,-7.122178,-0.528776,4.190286,-3.683249,-1.434756,8.110379,5.942368,0.650876,0.208904,-8.172244,-5.916261,0.571835, 
587,16.171179,11.55296,-1.727562,-0.641738,10.506898,-7.128951,-0.528657,4.190125,-3.684494,-1.434471,8.115837,5.953864,0.650959,0.208621,-8.177702,-5.927773,0.571753, 
588,16.176212,11.557614,-1.72832,-0.641588,10.50899,-7.1357,-0.528538,4.189964,-3.685735,-1.43419,8.12127,5.965362,0.651041,0.208343,-8.183136,-5.939286,0.571671, 
589,16.181244,11.562252,-1.729078,-0.641439,10.511074,-7.142425,-0.528419,4.189805,-3.686972,-1.433914,8.126685,5.976857,0.651123,0.20807,-8.188551,-5.950797,0.571589, 
590,16.186272,11.566881,-1.729835,-0.64129,10.513147,-7.149121,-0.528301,4.189647,-3.688206,-1.433643,8.132079,5.988352,0.651204,0.207801,-8.193945,-5.962307,0.571508, 
591,16.191275,11.571509,-1.730591,-0.641142,10.515212,-7.155791,-0.528182,4.189489,-3.689436,-1.433376,8.137449,5.999846,0.651285,0.207537,-8.199316,-5.973817,0.571427, 
592,16.196257,11.57613,-1.731345,-0.640995,10.517271,-7.162432,-0.528064,4.189332,-3.690665,-1.433113,8.142803,6.011342,0.651365,0.207277,-8.204668,-5.985324,0.571347, 
593,16.201221,11.580743,-1.732096,-0.640848,10.519325,-7.169047,-0.527947,4.189177,-3.69189,-1.432854,8.148139,6.022834,0.651445,0.207021,-8.209997,-5.996831,0.571268, 
594,16.206179,11.585346,-1.732846,-0.640701,10.521368,-7.175634,-0.52783,4.189021,-3.693117,-1.4326,8.153456,6.034327,0.651524,0.206769,-8.215311,-6.008337,0.571189, 
595,16.211132,11.589941,-1.733593,-0.640555,10.523402,-7.182194,-0.527713,4.188863,-3.694339,-1.432349,8.158756,6.045818,0.651603,0.206521,-8.220608,-6.019842,0.57111, 
596,16.216082,11.594523,-1.73434,-0.64041,10.525434,-7.188729,-0.527596,4.188708,-3.695557,-1.432103,8.164037,6.057308,0.651681,0.206278,-8.225884,-6.031344,0.571032, 
597,16.221031,11.599094,-1.735085,-0.640266,10.527456,-7.19524,-0.52748,4.188553,-3.69677,-1.431862,8.1693,6.068797,0.651759,0.206039,-8.231141,-6.042848,0.570954, 
